783 100
topping -0.4662527 0.28009713 0.11045364 -0.11905995 -0.22887142 0.31238258 0.021827966 0.33119342 -0.24748957 -0.5741645 0.06870611 0.7029987 0.23021407 0.7263644 0.35422218 0.31228742 0.05316027 -0.7984205 0.3385138 0.01694734 0.048025858 0.14512344 -0.011611552 0.1743051 0.11536144 -0.24646917 -0.08651597 0.3026668 0.012818459 -0.18030274 -0.3516977 -0.10390858 -0.7446001 0.053075153 -0.082191914 -0.32034144 0.38023722 -0.28441286 0.06097288 0.26914358 -0.01751433 -0.5074044 -0.026024923 -0.47821337 -0.2081604 -0.24498396 0.070954435 0.6405467 0.4838497 -0.51294404 0.52282405 -0.5634737 -0.12647063 -0.102047734 0.33105254 -0.416117 -0.44963443 -0.25409955 0.44940236 0.27597994 0.72826064 0.31790176 0.047911633 0.30699086 0.25480327 -0.022744227 -0.27757487 -0.80300754 -0.3120053 -0.13632868 0.47577462 -0.4718744 -0.17873883 -0.840705 0.23243994 -0.71692294 0.45027965 -0.02711483 -0.060020946 -0.22331785 0.3600703 0.2939273 -0.51160246 -0.114261 -0.2612277 0.6534329 -0.62741584 0.23657101 0.014741663 0.38097915 -0.038233567 0.13870327 -0.09019153 0.0074859806 0.67311865 -0.15048155 0.0072907773 -0.025937675 0.19902825 -0.6710505
of -0.26237214 0.3403288 -0.15828088 0.0040396415 -0.16041839 0.38321522 -0.21064645 0.16415627 -0.060654223 -0.30534476 0.008019198 0.44821772 0.11284543 -0.13665375 0.078811616 0.359374 -0.3117769 -0.51193964 0.0041212887 0.0018143983 -0.050781555 0.06931115 0.0005744208 -0.30152428 0.07052073 -0.5040949 0.3066885 -0.12733759 0.23415887 -0.14126372 -0.5439824 -0.096576005 -0.5106096 -0.06628994 0.021533718 -0.30381522 0.3293926 -0.12509057 -0.19284397 0.4066898 0.26145595 -0.6660016 0.14050318 -0.53992355 0.030248936 -0.58860296 0.28028247 0.7347311 0.4403182 -1.054106 0.5382853 -0.3999616 -0.39347455 -0.24770454 0.5415393 -0.3144766 -0.65580285 0.16551633 0.49239922 0.6781908 0.5762683 0.3236037 -0.092282996 0.6187045 0.30084062 0.16139016 -0.11068266 -0.46292838 -0.105543025 -0.054455053 0.122430764 -0.40873402 -0.34455535 -0.38136396 0.026036074 -0.40388212 -0.049720407 -0.14050649 -0.04576227 -0.18470652 0.02674911 0.50637555 -0.7601758 -0.21204977 -0.37726822 0.9633372 -0.97068244 0.14435285 0.15472716 0.17133197 -0.319306 0.30716497 0.21948695 0.35137853 0.77744204 -0.3805972 0.029225243 0.0088714445 0.16892157 -0.46164024
has -0.46311432 0.16973451 0.061229065 0.21957178 -0.32005483 0.2990949 -0.03444964 0.35044506 -0.3047936 -0.24287403 0.052888893 0.31316262 0.21298383 0.22082087 0.4513537 0.08586599 -0.257418 -0.73382825 0.042079285 0.45926479 -0.011336405 0.1282567 -0.12791054 -0.23672885 0.46237913 -0.56755304 0.28101164 0.041857585 0.37574697 0.009518934 -0.38648522 0.2749757 -1.0403606 0.19428886 -0.22344086 -0.39966825 0.12191021 -0.3279788 -0.061547033 0.12037357 -0.369295 -0.5854594 0.0014505071 -0.20220748 0.08144027 -0.762029 0.6824985 0.66841763 0.2974704 -0.7136602 0.017740382 -0.5229287 -0.3556217 -0.16998804 0.6173161 -0.5061735 -0.44835386 -0.28711632 0.1493084 0.40892965 0.543698 0.020799095 -0.20967731 0.18825406 0.35225534 -0.017372236 0.00021257409 -0.3624557 -0.12570927 -0.07843711 0.41675612 -0.40083718 -0.3898644 -0.35652316 -0.19916756 -0.29805884 0.16341892 0.032274492 -0.00024788472 -0.39488187 -0.10441682 0.40661997 -0.62411124 -0.38921255 0.023451613 0.9488883 -0.7339627 0.18380713 -0.04576596 0.35762668 0.23716123 -0.15123202 0.06916009 0.12271278 0.5262828 -0.062384084 0.088793784 -0.11376952 0.22084618 -0.7406908
pizza -0.2814121 0.518676 -0.22168809 0.36328873 -0.26542637 -0.02921622 0.014976938 0.1977275 -0.03516321 -0.84034055 -0.34412065 0.28232935 -0.098004475 -0.0061828867 -0.17708963 0.20641285 0.1655498 -0.56213564 0.4184993 -0.042060502 -0.03712251 -0.21816985 0.10304815 0.3219985 0.31649193 -0.47235832 0.24597982 -0.23052034 0.19576038 0.009984451 -0.16250262 -0.15095387 -0.6908383 0.008456919 0.097939044 -0.51704943 0.4132955 -0.2676047 -0.036343616 0.37322053 0.29471847 -0.5327083 -0.0030113868 -0.41783997 -0.10660066 -0.40790427 0.56651396 0.69023186 0.2754269 -0.7681434 0.35647792 -0.528014 -0.2082311 -0.4073322 0.55062854 -0.22837465 -0.34066665 0.19961208 0.4632666 0.31086314 0.5752677 0.10983615 0.0040712077 0.19796877 0.3602344 0.06403778 0.082089126 -0.6880146 -0.25952762 0.215793 -0.08248016 -0.35514235 -0.13600071 -0.5118883 -0.4340453 -0.56511503 0.22199844 0.15410402 -0.45044696 -0.19531853 0.06138093 0.76643795 -0.44278607 -0.3457638 -0.42996255 0.29239184 -0.71422374 0.18445139 0.3900281 0.2972865 0.35029924 0.12759021 -0.04018917 0.20235232 0.45123497 0.2690857 -0.29222414 -0.03989501 0.602172 -0.56525266
subclassof -0.5322635 0.37171957 -0.0107571175 0.21997401 0.04364591 0.5355994 -0.23068704 0.10878115 0.14461626 -0.7049332 0.052451145 0.053373586 0.1152633 0.3016409 0.34462 0.35488683 -0.07121377 -0.8409444 -0.0018500476 0.20979251 0.19118665 0.34918824 0.04750918 -0.02400699 0.30055612 -0.6127499 0.46458155 -0.17622897 0.25597027 -0.05768379 -0.42350617 0.08906586 -0.47047627 -0.052190296 -0.09838303 -0.25349158 0.40798187 -0.0016197963 0.19229157 0.21178845 0.34045225 -0.39650124 0.10832955 -0.30607587 -0.022712775 -0.4688875 0.15820846 0.43482375 0.23782119 -0.65688354 0.34100807 -0.30484837 -0.23117515 -0.13197476 0.71881276 -0.38404146 -0.48726872 0.03995728 0.42443657 0.63778657 0.5105584 -0.09317776 0.22219585 0.24719767 0.14366254 0.5851846 -0.20058051 -0.41815504 -0.031222098 0.14038642 0.41426602 -0.11102389 -0.5736567 -0.56972766 -0.24466334 -0.062567815 0.31690586 -0.43210238 -0.09002493 -0.108208016 0.13610196 0.461258 -0.8002966 -0.1309003 -0.29782015 0.5526265 -0.4616315 0.014928363 -0.07142685 0.475722 0.0439057 0.54291993 0.096444674 0.49824986 0.47046417 -0.20620173 -0.21104191 0.05725647 0.53740215 -0.7088871
is -0.62550235 0.37431732 0.10695865 0.1333206 -0.22395492 0.09200068 -0.20150717 0.26396528 -0.09660458 -0.22446331 0.19449097 0.63670784 0.09228731 0.40398675 0.4076572 0.2018734 0.22601646 -1.1296488 0.07883171 0.06665382 -0.32499158 -0.1923821 -0.21324955 0.13554758 0.24815066 -0.277204 0.14894438 -0.27103445 0.12828356 -0.0048362943 -0.45830214 -0.25728783 -0.75088805 0.16935655 0.036146637 -0.25342488 0.12521876 -0.5019748 -0.18778944 0.24155284 0.10721193 -0.6216796 -0.07938425 -0.32116765 -0.08867355 -0.6223077 0.11909762 0.37737042 0.44667354 -0.89868444 0.44179657 -0.35504112 0.005475843 -0.4345672 0.5969963 -0.27579996 -0.10547718 0.10954811 0.2514891 0.26343912 0.4213618 0.035851378 -0.21594468 0.06792128 0.21831448 0.117219396 -0.23684727 -0.65145534 -0.008315826 -0.16271386 0.37405336 -0.56285894 -0.23812346 -0.51342285 -0.24812207 -0.41005477 0.18457024 0.20672119 -0.09661318 -0.06386516 -0.0037665695 0.7839172 -0.5537492 -0.2780809 -0.15398417 0.8495517 -0.7122122 -0.06612685 0.24504803 0.16330154 0.023963595 0.47541338 -0.02513088 0.22023949 0.41313758 0.44134942 0.20643303 0.30871975 0.26897687 -0.6311554
class -0.31496388 0.47894153 0.20929413 0.20708118 0.10661395 0.446691 0.026496306 0.0014136778 0.25516158 -0.3208887 0.1348254 0.23902188 0.0817864 0.17224567 0.5586359 0.44830438 0.131305 -0.75743157 -0.21390036 -0.17556427 -0.09874421 0.069466256 -0.37069762 -0.02820973 0.2284159 -0.60695535 0.25436038 -0.2563201 0.04753023 -0.07418098 -0.3762367 -0.079136714 -0.4623911 -0.13276936 -0.27663702 -0.03494985 0.19020994 -0.3136023 0.1568654 0.6138081 0.46848702 -0.24362 0.2430354 -0.609851 0.030000187 -0.3554049 0.2626075 0.43430236 0.5103764 -0.6548784 0.17285739 -0.3887736 -0.54507643 -0.111896716 0.5579811 -0.23813307 -0.152631 -0.016346162 0.26597 0.0967987 0.35882154 0.21029986 -0.12862448 0.2376473 0.17695288 0.54820585 0.02275189 -0.3510788 0.24744003 -0.027268205 0.6136999 -0.27790007 -0.32771415 -0.5018466 -0.17653978 -0.080152296 0.34561074 -0.36209705 -0.3190855 0.05393237 -0.017985718 0.45670882 -0.74815243 -0.16687864 -0.46444076 0.70808816 -0.89365834 0.119347416 0.09481785 0.7360074 -0.14664783 0.75238794 0.2946496 0.6761159 0.3073625 -0.08696758 0.0218713 0.6491916 0.25089258 -0.969079
super -0.30022812 0.34797955 0.17117807 0.027175747 -0.54095167 0.53580433 -0.17104533 0.29145813 -0.013140626 -0.6641329 -0.038021922 0.42139938 -0.104646765 0.30581033 0.6473787 0.40765393 0.5807392 -1.3889807 -0.29173487 0.22724906 0.10401325 0.41734993 0.19417119 -0.13257417 0.53599113 -0.458152 0.56271327 -0.24175009 0.036658637 -0.035987414 -0.42377445 -0.045485836 -0.088833354 0.14833176 -0.133915 -0.22482668 0.20618567 0.0006164375 -0.18841058 0.584004 0.58907866 -0.16925707 0.3674797 -0.17580698 0.12195462 -0.40220726 0.15880997 0.17145447 0.3595184 -0.8961701 0.54479 -0.29925057 -0.39755556 -0.19709149 0.3988952 -0.1620328 -0.4096323 -0.19076768 0.25907803 0.44237924 0.36081842 0.0050498573 0.07184566 0.087839514 0.0039561084 0.49491093 -0.010320266 -0.37892172 -0.21921949 -0.11428166 0.37438157 -0.20044273 -0.40308958 -0.16330537 0.14264995 -0.0012341401 0.46614668 -0.37718654 -0.2877999 -0.12270462 0.052941922 0.4080532 -0.7791282 -0.22525875 -0.31289563 0.54482275 -0.82063746 -0.18892322 -0.03297983 0.061063223 -0.015739229 0.48713115 0.13837434 0.57853407 0.24871899 -0.13804841 -0.09323504 0.050882936 0.31329507 -0.41879484
label -0.3560406 0.35096568 0.36436707 -0.024466189 -0.31826264 0.4400381 -0.3682153 0.22074065 -0.05833206 -0.3127152 0.100810006 0.3713741 0.18834801 0.22812192 0.4419953 0.41435403 -0.23566885 -1.0179701 0.08310794 0.13432553 -0.10151961 0.059517913 -0.089492135 -0.13325678 0.21978669 -0.43090338 0.4795134 -0.10502215 0.47148547 0.028362034 -0.4709855 -0.120042376 -0.5912055 0.1884383 -0.1826701 -0.46033418 0.18144532 -0.17040132 -0.19939506 0.52061987 0.18859068 -0.33922076 0.32105398 -0.41551855 -0.33799323 -0.5590703 0.20750125 0.65104586 0.44079608 -0.76672256 0.32938388 -0.41991138 -0.36572075 -0.054909375 0.6175226 -0.4474582 -0.56648535 -0.2108395 0.48625693 0.5252518 0.58637035 -0.06359237 -0.15745349 0.29942933 0.5288984 0.30172402 0.027992144 -0.35610917 -0.01804926 -0.053768713 0.4795742 -0.49735963 -0.4585003 -0.3674996 -0.074109934 -0.3710635 0.3121104 -0.2376995 -0.11815318 -0.00052260695 0.23718625 0.49186495 -0.77674246 -0.06498497 -0.13199353 0.74165463 -0.80137926 0.10873025 0.075264566 0.4457639 -0.2019275 0.38847518 0.22518888 0.46401495 0.5965077 -0.27595004 0.17337608 0.06938968 0.23167406 -0.6885947
preflabel -0.385807 0.35215813 0.3698481 0.049482804 -0.34785986 0.3336434 -0.3236976 0.21201208 -0.03036229 -0.2923849 0.055819158 0.28241876 0.13308945 0.24241875 0.4469286 0.35712564 -0.16362882 -0.9349225 0.06847185 0.114465475 -0.1761243 0.052071728 -0.03636365 -0.11579222 0.18057238 -0.398575 0.3307896 -0.11995643 0.4943341 0.008459503 -0.43027902 -0.12291798 -0.51976603 0.21079792 -0.0994485 -0.3801947 0.07938021 -0.1354814 -0.1870655 0.437386 0.17986925 -0.32956445 0.25669697 -0.26978156 -0.35260344 -0.49373627 0.2560141 0.5019839 0.337572 -0.7068419 0.2443866 -0.36712942 -0.3554305 -0.13339075 0.6231591 -0.3848717 -0.5238651 -0.14556834 0.47081038 0.5324067 0.46931648 -0.06284639 -0.2216833 0.19911194 0.44261128 0.27651864 0.0029497577 -0.38629916 0.011061934 -0.11144815 0.42975992 -0.49384433 -0.46465316 -0.32997704 -0.1825653 -0.44355294 0.29824367 -0.22053622 -0.17360461 0.01579843 0.17234655 0.5890676 -0.6996206 -0.019823516 -0.19421852 0.6643684 -0.7022396 -0.0005772977 -0.018067602 0.4314471 -0.13583261 0.38926762 0.25934806 0.42149147 0.49730647 -0.18090382 0.14869687 0.052716874 0.23641361 -0.5938492
http://www.w3.org/2000/01/rdf-schema#subClassOf 0.016302824 -0.24154378 0.07613262 0.38387936 -0.030308094 0.5328863 0.70975834 0.26285338 -0.007928997 0.48545092 -0.567152 0.022130098 -0.08791268 0.65396243 0.07993373 0.20757057 0.4711671 -0.43501726 -0.14540757 -0.63317126 -0.0025207922 0.33358338 0.74756163 0.2302164 0.90881294 0.054105893 -0.7227875 -0.08254527 -0.36979732 -0.4731572 -0.0739761 -0.13394138 0.7544996 0.11657236 -0.49994668 0.31332883 0.13144474 -1.2936527 0.38276917 0.06739848 0.25804594 -0.479764 0.013755041 -0.17478943 0.27628344 -0.08050829 0.61795884 0.43047416 0.06521906 -0.55901164 -0.91810364 -0.6554245 -0.057181228 0.6612672 0.06112488 0.41350558 -0.3807341 0.3822536 0.37695932 0.6611008 -0.3388809 0.36441112 -0.26822314 -0.013100087 0.34747684 -0.11039542 0.25059888 -0.22188143 0.26114088 -0.13412428 -0.4498084 -0.51411897 0.1641784 0.23726113 -0.0637172 -0.29787374 0.53713876 -0.09907138 -0.30114228 0.34609798 0.117104396 0.37154356 -0.38719866 -0.002628626 -0.43487027 -0.50553536 0.91691476 0.13825403 -0.45640346 0.017531076 -0.81667465 -0.0034398735 -0.21192335 -0.54334795 0.16498576 -0.6469916 0.36898568 0.3662624 -0.14820345 -0.4442445
spiciness -0.43882233 -0.16553304 0.4974059 -0.16635363 -0.55419344 0.062238943 -0.57910687 0.11388839 0.4048738 -0.62155855 0.052667934 -0.026539957 -0.05518955 -0.14054766 0.36919758 0.49630055 0.5747816 -0.69669497 0.4085872 0.30422798 -0.11411145 -0.05152243 -0.2851887 -0.333296 0.47855753 -0.031612568 0.397803 -0.002793496 0.38985795 0.23101898 -0.37508675 0.12103854 -0.3935425 0.34010568 -0.118808515 -0.74028677 0.33200294 -0.16124198 0.58100384 0.4827026 0.14574602 -0.3103258 0.47613835 -0.25609666 -0.5483444 -0.65471 0.10188958 0.294754 0.5066989 -0.21779324 -0.012367127 -0.75505674 -0.042655006 0.22194622 0.60183716 -0.11981917 -0.47619933 -0.17958742 0.39161107 0.7118434 0.41821602 -0.2720942 0.24008347 0.03139787 0.33692968 -0.046847265 -0.14805752 -0.54683673 -0.018373137 0.36440238 0.5672792 -0.19952984 -0.60353386 -0.60715014 -0.49073964 -0.29094157 0.44457468 -0.28576058 -0.2407453 -0.41952768 0.5050921 0.6755535 -0.96693265 -0.077468276 -0.23781131 0.63076985 -0.66734326 -0.033095933 0.056697536 0.44620132 -0.4359034 0.22213233 -0.18945141 -0.096330255 0.8940762 -0.26811722 0.0038523057 0.11945081 0.37852433 -0.58980185
http://www.semanticweb.org/owl2vec#superClassOf 0.0033872386 -0.24076761 0.0111917835 0.17795078 0.052816104 0.6185691 0.59149104 0.22395569 0.0778831 0.3312409 -0.40338963 -0.005915543 -0.19936563 0.840606 -0.22090608 0.29217133 0.3990993 -0.2699633 -0.11046395 -0.7289282 0.08085384 0.5034225 0.7002045 0.098731056 0.62752885 0.048588097 -0.8181098 0.13808705 -0.40261593 -0.34673756 -0.17554742 -0.061335485 0.9004518 0.22225602 -0.33065936 0.33953008 -0.016604757 -1.1231449 0.49383733 -0.014673883 0.39790025 -0.4747496 0.03649709 -0.15760258 0.24262807 -0.077707134 0.9267766 0.33256966 0.09499874 -0.33622977 -0.8450289 -0.7136142 -0.19071522 0.77398014 0.22742051 0.008125693 -0.48455313 0.2889103 0.35036206 0.54913896 -0.41852388 0.2765044 -0.20330586 0.19099435 0.16284876 -0.2597399 0.038660254 -0.2558092 0.53782415 -0.19802222 -0.33700472 -0.38738889 0.14498629 0.20183848 0.06492634 -0.28837502 0.6454231 0.08048084 -0.42479604 0.3476536 0.1618935 0.45270795 -0.35939062 0.09733044 -0.33438048 -0.38179246 0.88705176 0.122679844 -0.37963283 0.05822161 -0.8960443 -0.011429886 -0.23000264 -0.70250076 0.33552146 -0.6416878 0.40720284 0.2220949 0.03275766 -0.68131745
http://www.co-ode.org/ontologies/pizza/pizza.owl#hasTopping 0.104761444 -0.4534552 0.1716911 0.5376681 0.36845922 0.33208802 0.62729955 -0.18861964 -0.48297352 0.38273624 -0.41713104 -0.5129901 0.23035914 0.78990674 0.5702281 -0.010660216 0.42231414 -0.61326844 -0.023495363 0.0024353347 0.26413986 0.13454337 0.61509067 0.33464223 1.1077893 -0.5863834 -0.1379412 -0.88826066 -0.64605695 -0.4314609 -0.08712331 -0.321427 0.22473258 0.33797196 -0.29783368 0.20273699 0.18951902 -1.6002806 0.5839816 -0.333694 -0.37381643 -0.7466078 0.11438288 -0.15591966 -0.24213117 0.35603935 0.72738147 0.7186025 0.12086724 -0.47276372 -0.9770286 -0.48539045 0.12463083 0.5117222 -0.055580515 0.0490331 -0.6206114 0.37227517 0.20073026 0.7616525 -0.4456559 -0.19036871 -0.5179445 -0.03595489 0.27179033 -0.5178655 0.15653613 -0.14083147 0.5707392 0.10300514 -0.15636538 -0.19450034 0.010292811 -0.040818404 0.0702929 0.49247056 0.27108207 -0.023753403 -0.11480159 -0.031606417 0.24466719 -0.093777396 -0.35527188 0.15572743 -0.23406254 -0.13289896 0.70134985 -0.5564253 -0.11386159 0.43190786 -0.29700115 0.0851472 0.27765265 -0.2291253 -0.029545335 -0.41364983 0.023852462 0.5235404 -0.057428792 -0.187475
pizzatopping -0.3824094 0.19522147 0.22910699 -0.12445608 -0.13850895 0.34554118 0.0058119395 0.24714752 -0.036192987 -0.671118 -0.27497864 0.40817082 -0.41950586 0.38745013 0.10472645 0.7767511 0.46130937 -0.32399148 0.11787744 -0.08743369 0.080779076 0.065822944 -0.32326007 0.00019177404 0.24172793 -0.56346524 0.09952452 -0.1100062 -0.0036306207 -0.052620143 -0.019388668 -0.44111344 -0.17601134 0.079401925 -0.45712522 -0.41340336 0.030848553 -0.06156724 0.32016486 0.72231877 0.75693846 0.12886338 0.4812941 -0.66149426 0.057969995 -0.3276213 0.4559701 0.53261864 0.58361673 -0.8708461 0.38022345 -0.8802315 -0.10637428 -0.1845794 0.26473624 -0.135242 -0.28185108 -0.025886469 0.22481726 0.0667862 0.32157663 0.45534602 -0.29194602 -0.052909963 0.1650934 0.51133233 0.2066807 -0.52264696 -0.13825357 -0.4335229 0.35940027 -0.01873871 -0.38227436 -0.5952425 0.36311975 -0.1363124 0.32781157 -0.27469897 -0.34911484 -0.13685372 0.55363256 0.3036203 -0.6968263 -0.18992838 -0.26248068 0.39291453 -0.9961731 -0.14531896 -0.42208675 0.3226095 -0.51749504 0.51035184 -0.02136733 0.1261386 0.39884922 -0.35157147 -0.22593433 0.26800257 -0.002278855 -0.3492298
http://www.co-ode.org/ontologies/pizza/pizza.owl#isToppingOf 0.023984227 -0.34547502 0.09789263 0.19460088 0.08607115 0.1266003 0.54343164 0.019872399 0.037691947 0.50170004 -0.509229 -0.26764175 0.113097325 0.6205655 0.15548326 0.85391206 0.40891016 -0.8584536 -0.03757077 -0.42843175 0.31161717 0.43455112 0.06294304 -0.3483634 0.6446596 0.15673018 -0.6240762 -0.32980108 -0.6757883 -0.343913 -0.4165826 -0.44829378 0.7946307 0.2692794 -0.100081734 0.04014744 -0.27790952 -1.3758919 0.67777157 -0.14654085 0.111563645 -0.9470642 -0.30679968 -0.17360401 0.133196 0.11403361 0.63588756 0.6919873 -0.15129328 -0.448178 -0.9295451 -0.42545894 0.19106841 0.47131753 0.35171214 0.35015965 -0.08304535 0.29640836 0.63123006 0.85402733 -0.8870295 -0.051909346 -0.87434876 0.18535836 0.16290407 0.1981158 0.38948965 -0.3879867 0.42759365 0.52230304 -0.67506254 -0.86514235 0.19644731 0.21980582 -0.00598818 -0.025636049 0.7693884 0.11912478 -0.5201594 0.07276953 0.019710606 0.11216915 -0.56086594 0.041710455 -0.58049893 -0.30411682 0.67437875 -0.5773848 -0.2948092 0.03896076 -0.47907978 -0.060995743 -0.06092968 -0.8645351 0.56050885 -0.5949073 0.16497938 0.342336 0.08409632 -0.35727328
tomato -0.3230846 0.010906523 0.008809856 0.16305898 -0.4532125 0.27447549 -0.13662492 0.13022986 -0.4141567 -0.6903981 -0.3093222 0.08486861 -0.089802995 0.2683154 -0.10544771 -0.3074657 0.5869568 -0.3220914 0.057775334 0.40521666 -0.47679076 0.06836174 0.14300781 0.41487446 0.5808063 -0.14027658 -0.10820171 0.23978516 -0.86457545 -0.3357623 -0.41128471 0.50459903 -1.2589892 0.2517112 -0.18794893 0.20399785 0.66986066 -0.4471444 0.17902604 0.10171935 -0.14088713 -0.41257223 0.5100433 -0.25648248 -0.52434564 -0.3953147 0.09098354 0.6155906 0.7386688 -0.065853655 -0.4815998 -0.87817484 -0.51245683 0.138243 1.0001107 -0.2790864 -0.3065276 0.37908146 0.42974725 0.47828156 0.9043629 -0.19534408 -0.14607154 -0.09544054 0.017101344 -0.038336925 0.10425869 -0.35981524 -0.43228143 0.33512685 0.2021495 -0.17458828 -0.103234865 -0.23995773 0.09560349 -0.7852573 -0.1294607 -0.3275372 -0.13793437 -0.37638554 0.47138926 0.008232345 -0.4267245 0.48198494 -0.4519082 0.5695385 -0.2818469 0.37771648 0.3365117 0.09311704 -0.14888947 0.17992286 0.20584974 0.05254396 0.5104066 0.22692178 -0.107855655 0.24289067 0.489515 -0.3869874
http://www.w3.org/2000/01/rdf-schema#label 0.0670705 -0.25616473 0.27510405 0.20510983 -0.18114802 0.33935276 0.3149905 0.304977 -0.123527125 0.34658933 -0.49041027 0.37813056 -0.3005981 0.3389905 0.40757456 0.21235326 0.45344245 -0.3738645 -0.26176435 -0.43174812 -0.055701353 0.17075786 0.70562464 0.44513544 0.7467578 0.28207755 -0.44958088 -0.1721789 -0.21753547 -0.3492966 -0.10733681 -0.12912883 0.53797066 0.120161474 -0.5352901 0.26012275 0.049967676 -0.8661777 0.13695863 0.3362371 0.18504414 -0.12564889 0.054100428 -0.19066165 0.10544701 0.101004265 0.37158135 0.29690227 0.31118843 -0.46360484 -0.6318 -0.4168472 -0.08950439 0.27413827 0.016063685 0.37315091 -0.31814378 0.46145472 0.3586539 0.481407 -0.22064382 0.20039716 -0.3884646 -0.10923639 0.3772848 -0.17516425 0.14629078 -0.19447185 0.016322553 -0.15674591 -0.4715098 -0.48287562 0.40639737 0.19709145 -0.09216332 -0.5451823 0.15848464 -0.1311776 -0.3165478 0.19876887 0.097713985 0.17705208 -0.28853533 0.22207442 -0.29346323 -0.54044795 0.6734655 0.04617085 -0.39460644 -0.07049848 -0.6023264 -0.12586647 -0.24092428 -0.28407794 0.1337682 -0.38639048 0.19137959 0.35287246 -0.09410874 -0.17139564
http://www.w3.org/2004/02/skos/core#prefLabel 0.09023309 -0.26662335 0.2760295 0.20571122 -0.16921514 0.31443536 0.3070311 0.26371196 -0.09932786 0.35277408 -0.45710015 0.34070674 -0.24235868 0.34688544 0.38312253 0.22743191 0.43635556 -0.3708217 -0.26793495 -0.40681604 -0.03509175 0.14617802 0.6743661 0.39000738 0.6968801 0.22323395 -0.43578812 -0.18899243 -0.22795877 -0.32616097 -0.09438352 -0.14350021 0.5539524 0.10025755 -0.53561753 0.2676123 0.042430297 -0.8680639 0.14557269 0.32508618 0.17274724 -0.16539004 0.041448906 -0.17496994 0.13221383 0.09773087 0.40083063 0.30144337 0.26561028 -0.48966527 -0.5894223 -0.4122315 -0.13239795 0.28142357 0.012719116 0.36311805 -0.2934764 0.45386976 0.34220305 0.5025456 -0.2188504 0.17849253 -0.40100098 -0.089069575 0.37407672 -0.16240013 0.1702183 -0.17834891 0.045338776 -0.110523574 -0.4509058 -0.4678695 0.409184 0.18266274 -0.086935684 -0.5177823 0.17328173 -0.14373784 -0.3151312 0.19023113 0.12054527 0.1387142 -0.2780726 0.1703899 -0.30840796 -0.506528 0.68453825 0.024240524 -0.39255962 -0.04621625 -0.60260797 -0.085034996 -0.21247868 -0.27694574 0.1049316 -0.4030433 0.13469152 0.40043104 -0.12415765 -0.14842363
altlabel -0.330917 0.48163977 0.17992118 0.05101873 -0.45815858 0.28990167 -0.0015689017 0.25897256 -0.40976 -0.2951414 -0.41373986 0.7514829 0.14091903 0.33023912 0.19706428 0.13596755 -0.1772031 -0.83055586 0.2911004 0.042248875 -0.2886694 0.15921514 0.2723865 0.25684127 0.1766304 -0.13993038 -0.10539757 -0.024629358 -0.03623914 0.033423427 -0.40526247 -0.03300933 -0.78065854 0.28452387 -0.05169234 -0.09095181 0.27544734 -0.30809265 -0.51362425 0.41935712 -0.19188823 -0.3968193 0.23035109 -0.22881813 -0.3614733 -0.58160365 0.029578064 0.66312474 0.5213384 -0.5155862 0.064585954 -0.32613233 -0.2290678 -0.25880396 0.92254585 -0.22691594 -0.38186002 -0.337637 0.44351846 0.22798383 0.74766463 0.036239848 -0.2796964 0.28234035 0.20902707 -0.0001754176 -0.15823518 -0.6477529 -0.12131716 -0.2818396 0.19113734 -0.31509584 -0.20236014 -0.5851802 0.1764992 -0.8953817 0.61057955 0.13361867 -0.23156276 0.008812011 0.40479362 0.37106705 -0.34177834 0.413455 0.11946145 0.4571605 -0.054412987 0.37664348 -0.01887311 0.5812094 -0.018582301 0.36776495 0.42207068 -0.06891312 0.84302217 0.101370424 0.18585092 0.19030792 0.25632107 -0.7960428
tomatotopping -0.16181806 0.11256565 -0.016890308 0.05794158 -0.46810746 0.14441682 0.0044258414 0.2295338 -0.31571624 -0.39728996 -0.19500807 0.4058691 -0.074986234 0.23328635 -0.08435903 -0.36740106 0.513365 -0.48737508 -0.05902573 0.17137484 -0.5510338 0.017046856 0.17440999 0.4272632 0.47184917 -0.18824391 -0.20646597 0.23526138 -0.6171005 -0.33397907 -0.6399972 0.42029947 -1.1082537 0.22985022 -0.0150019685 0.20986193 0.49266827 -0.3325345 -0.028629638 0.350597 -0.017224161 -0.5313884 0.5743711 -0.16944914 -0.41884062 -0.33176526 0.26673108 0.7719603 0.6933234 -0.1505295 -0.40906104 -0.68866605 -0.80151063 0.14318502 0.8741744 -0.25334263 -0.31936386 0.25428313 0.4602893 0.50670886 0.9480271 -0.08097464 -0.086459145 0.053354517 0.12925844 -0.23475453 0.004349087 -0.41745952 -0.40887806 0.41825762 0.13291746 -0.4634926 0.13645464 -0.030703226 -0.07837987 -0.9709966 -0.05584017 -0.31205136 -0.28397143 -0.24343424 0.14399272 0.15867932 -0.43317124 0.388037 -0.40129715 0.5555147 -0.3799742 0.5251118 0.5613568 -0.034856133 -0.040824316 0.06690125 0.12573975 0.117608085 0.48127463 0.20389102 0.09822136 0.35642844 0.5467545 -0.61956054
mozzarellatopping -0.055286326 0.07212792 -0.14740722 -0.12972374 -0.1995154 0.16758902 -0.037430204 0.50547475 -0.59788305 -0.56739366 -0.10854907 0.5231441 0.23958461 0.57277197 0.118497305 -0.05728788 -0.05415575 -0.5020222 -0.046993848 0.3484062 -0.18319087 0.046186257 0.13345595 0.3381453 0.6761142 0.037502363 0.029409971 0.18501927 -0.6124452 -0.23784895 -0.34176534 0.48500666 -1.0923653 0.18082803 0.23177637 0.07174909 0.5541631 -0.39194706 0.12125195 0.119537145 -0.4182977 -0.7765228 0.24231304 0.048786506 0.18581012 -0.32089478 0.094914615 0.74017423 0.09303735 0.055885084 -0.5485619 -0.48092443 -0.52041787 0.008267636 0.6147925 -0.5471754 -0.3335647 0.24315067 0.34336802 0.50821924 0.5252565 -0.053700693 -0.2793812 0.69787616 -0.15475912 -0.2441931 -0.1974784 -0.33862814 -0.3297333 0.24105334 -0.19726394 -0.22748701 0.16853921 -0.13448974 -0.49013656 -0.46728677 0.097218476 -0.23956533 -0.64457 -0.364888 0.18219551 0.35223708 -0.47355866 0.10355649 -0.14637516 0.61410457 -0.40528378 0.30883855 0.34200928 -0.009999697 0.07669025 -0.055648103 -0.03582302 -0.38868743 0.5554333 0.5238034 -0.5201404 0.4638394 0.38039795 -0.40885118
mozzarella 0.031802196 0.33890447 -0.12764569 -0.14013344 -0.35135776 0.18175681 0.062085554 0.7330777 -0.54216 -0.46766305 -0.12442 0.6541875 0.23436317 0.5116479 -0.054737497 -0.15471926 0.055970654 -0.70728487 -0.11974913 0.21320537 -0.46493798 -0.046690267 0.24440886 0.43317533 0.72480446 0.059861884 -0.1210097 0.21282458 -0.601753 -0.26179752 -0.47103018 0.54228604 -0.9680596 0.1766774 0.28162435 0.11795262 0.37208423 -0.35078856 -0.099884205 0.429717 -0.15768167 -0.886344 0.39203048 0.1887112 0.07758939 -0.4493467 0.27605188 0.988375 0.14706758 -0.076779485 -0.48600045 -0.4646111 -0.90653634 -0.0012300538 0.6322977 -0.541866 -0.38366503 0.1350409 0.307977 0.33517975 0.6481031 0.14047891 -0.19492353 0.58872205 -0.13186456 -0.41878486 -0.2126129 -0.3724873 -0.3619049 0.31896886 -0.24252144 -0.43329462 0.2417865 0.087332204 -0.45375353 -0.66944194 0.16512825 -0.33110067 -0.6588898 -0.24030942 0.030675527 0.40507218 -0.48167288 0.17966753 -0.16288191 0.6280275 -0.6606446 0.5356971 0.5390756 -0.22502227 0.26146078 -0.082310915 -0.016360272 -0.22118095 0.47294778 0.59235173 -0.2576351 0.46035573 0.37543377 -0.5127612
http://www.co-ode.org/ontologies/pizza/pizza.owl#PizzaTopping -0.13602659 -0.14625937 -0.19677249 0.1694379 0.4283592 0.13128369 0.47847325 0.15761113 -0.17309435 0.12397828 -1.0401314 -0.055259414 -0.21314514 0.2679438 0.2792285 -0.2805995 0.19688798 -0.5888706 -0.2596945 -0.16417953 0.09752859 0.18444896 0.42348206 0.57927036 0.96876365 0.28860688 -0.19921541 -0.2856181 -0.46976817 -0.8897217 -0.41056287 0.0008450186 0.36558726 0.027075714 -0.44405186 -0.0023325684 -0.15839624 -1.1297342 0.105438955 -0.2505511 0.0791242 -0.28222698 0.08917072 -0.35041958 0.4174909 -0.29642916 0.30514044 0.3899433 0.13074864 -0.7921464 -0.4531912 -0.47792065 0.4264881 -0.18867724 0.16996261 0.16331798 -0.7418534 -0.08079844 0.6825498 0.49166545 -0.5068597 0.13230526 0.043473314 -0.18403508 0.41578704 -0.074689694 0.25845093 -0.36000594 -0.20851034 -0.4564171 -0.77255344 0.031228099 -0.112678885 0.15965626 0.16657417 0.05999575 0.44000357 0.41422805 -0.45161885 0.29495513 0.0029741244 0.38143855 -0.45704192 0.110203505 -0.3180693 -0.026245605 0.49887916 0.368278 -0.2812172 0.73543024 -0.526293 0.21827835 -0.0037851909 -0.8541374 0.63811684 -0.38566118 0.1562925 0.16110623 -0.37186375 -0.3921319
hot -0.02531085 -0.18734747 0.31429246 0.06695707 -0.15332161 0.27383098 -0.15906286 0.66455394 -0.28923753 -0.8480031 -0.16736066 -0.03162706 0.48905614 0.3224452 0.22390734 0.2630286 0.37836674 -0.76959705 -0.34961468 -0.25494552 0.18437676 0.38175565 -0.13726681 0.5016169 0.08179562 0.22013184 -0.033265032 -0.24660337 -0.3116515 -0.271233 -0.4151728 -0.089468874 -0.38597995 -0.37304303 -0.7573951 -0.43712154 -0.04749425 0.107137 0.37243283 -0.12562625 0.014204702 -1.008359 0.2167236 -0.18694156 0.2529967 -0.15237164 0.95799196 0.8264493 0.4917316 -0.50002146 0.37924847 -0.33413854 -0.29850262 -0.28789112 0.7814937 -0.63866323 -0.012877386 0.78162795 0.06327615 -0.12732695 0.096161075 -0.35598135 -0.3459325 0.39317882 -0.37364584 -0.18618771 -0.0057608583 -0.008832823 -0.43167862 0.5694068 0.41168836 0.099924296 -0.23806766 -0.89925605 -0.3101202 -0.70675796 -0.20196295 -0.21602248 -0.42917454 -0.6377477 -0.2708039 0.55576205 -0.38521144 -0.41412327 -0.122416176 0.088655144 -0.59828174 -0.4453194 -0.19747944 0.18315122 -0.82993424 -0.13951549 0.31740475 0.42228025 0.43130842 -0.25108868 0.20266396 0.9269344 -0.22502868 0.07844067
pepper 0.085578114 -0.17922463 0.3105927 -0.54500914 -0.6942218 -0.16820224 -0.30703092 0.38913757 -0.3263202 -0.99417514 -0.5845984 0.5292292 0.7074636 0.6505215 -0.22722967 1.0935794 0.6235088 -1.1178429 -0.6935936 0.1559553 -0.33321714 -0.30475 -0.23632544 0.015128266 0.06373525 -0.5532927 -0.41421893 -0.03716335 -0.81015587 -0.3363863 -0.368971 0.77475166 0.1628101 -0.3056793 -0.18087396 0.36119172 -0.06199152 -0.25276515 0.42065442 0.14957522 -0.101058185 -0.47292095 0.40826932 -0.42158452 0.34722257 -0.69450825 1.1683562 0.8688721 0.33643314 -0.4048334 0.13268976 -0.5557093 -0.35832727 -0.49516615 1.1330434 -0.68666476 0.035904776 0.4303689 -0.3931958 -0.271697 0.08992079 -0.5242462 -0.27844036 0.22857699 -0.023679754 -0.00040010363 0.18191843 0.086331524 -0.6492078 0.80821633 0.46450463 0.20887037 0.38078025 -0.43380266 0.017272573 -0.68009484 0.060649052 -0.32276294 0.2020613 -0.26160136 0.025959764 0.35715675 -0.8064476 0.20666657 -0.6363878 0.43550864 -0.51951 -0.0052967 0.59620386 0.2795297 -0.6883778 -0.084606834 0.51014775 -0.42928487 0.5775563 -0.4746266 -0.021490453 0.12351707 0.047429122 -0.34137198
american 0.80434704 -0.4059295 0.1583243 -0.12987994 -0.33400643 0.4209604 0.03958025 0.5874199 -0.24755584 -0.38654828 -0.095605336 0.8515548 0.37480456 0.06890077 -0.053428475 0.06716084 0.6101648 -0.836847 -0.33095264 0.07648087 0.49940988 0.34489083 -0.044896297 0.42180955 0.2808296 0.35939738 0.21290016 -0.3917839 -0.3006329 -0.22581092 0.018049903 0.25059453 0.23116438 -0.4884905 -0.5696668 -0.92544127 -0.117283136 -0.15924713 0.044521753 0.51753914 0.027377432 -0.83045465 0.32436916 -0.18418121 0.3004586 -0.4228713 0.9570804 0.99317855 0.5965259 -0.4551763 0.03178364 -0.61124676 -0.00012353557 -0.060361132 0.839216 -0.62671113 0.056314528 0.36979577 0.246254 0.24919406 -0.21730186 0.04244484 -0.28091434 0.25743005 -0.61401814 -0.3979167 0.07796066 -0.40038174 -0.5624055 0.8426448 0.29029757 0.8184411 0.11227058 -0.5773541 -0.013813276 -0.803518 0.0054309918 0.35091957 -0.09742836 -0.37893337 -0.38603646 -0.00030205605 -0.37846735 -0.025220659 0.07374255 0.34051177 -0.3868004 -0.56093806 0.1696751 0.6657115 -0.8095144 0.0757241 0.2744764 -0.17091556 0.5525914 0.019252203 -0.29326048 0.8229419 -0.10824285 -0.71247977
http://www.co-ode.org/ontologies/pizza/pizza.owl#Pizza 0.033885848 0.14802095 -0.42091724 0.5352053 -0.49477935 -0.07455362 0.6587773 0.4161174 -0.23600869 0.6818795 -0.59012854 -0.63621545 0.6203888 0.577911 0.08986398 0.08460571 0.17136794 -1.1054629 0.19493727 -0.6346856 -0.28776816 0.18931162 0.392536 0.23421243 1.1317747 0.17566362 -0.8770672 -0.7390414 -0.26026002 -0.20805803 -0.071949 -0.023343382 0.5296402 -0.27720782 -0.012928854 -0.41981664 0.08742594 -1.0434738 0.46168628 -0.22661792 -0.028784215 -1.1176481 0.2304296 0.2841238 -0.23040609 -0.29944032 0.6203293 0.9113677 -0.14290741 -0.014278817 -1.034258 -0.30451673 0.030338606 0.5506733 -0.07665489 0.12316234 0.18758318 0.5367799 0.046211 0.5056788 -0.32320985 0.11054884 -0.31492847 -0.05351047 0.026068715 -0.1730295 0.19447893 -0.1519201 0.14185743 0.966044 -0.30438974 -0.3511104 -0.36484477 -0.028508754 -0.06773483 -0.455878 0.032883402 -0.2803793 0.2175955 -0.016845746 -0.7612577 0.22967121 -0.11926614 -0.22267179 -0.12460115 -0.70834494 0.1655369 -0.4421856 -0.059967514 0.15691501 -0.3715667 -0.550911 -0.06594981 -0.021995293 -0.31466332 0.2917493 0.69553125 0.44669312 0.15208542 -0.2472742
four 0.23488565 0.060282603 0.31821996 -0.3709079 -0.31078404 0.5883954 -0.30880243 0.07620339 -0.009854458 -0.40585452 -0.109446526 0.30576566 -0.26799044 0.48354125 0.19699529 -0.38987604 0.47193545 -0.50293815 -0.23168737 0.34174576 0.37474015 0.40739003 -0.07361084 0.4841202 0.637573 0.43646345 0.053840753 0.19638142 0.023611866 -0.3322072 0.3369565 0.2384264 -0.68951464 0.21968158 -0.3979384 -0.7399878 0.7174347 -0.25750834 -0.28636402 0.82878405 0.07879615 -0.24588701 0.9901658 -0.5868375 -0.038602263 -0.3334029 0.5836816 0.44300875 0.5599765 -0.24910235 -0.5078251 -0.699665 -0.43870634 -0.5059779 0.46253446 -0.81731576 -0.3096987 0.7144483 0.52789026 0.6147954 -0.26447615 0.7820087 0.054251697 0.2415961 -0.25865296 -0.4516314 -0.18810211 -0.9726551 0.51373607 -0.18960215 -0.545229 0.22461005 0.12384901 -0.8892601 -0.23902611 -0.43387577 0.13477182 0.32797402 0.122713625 0.22069745 -0.35498884 0.05634571 -0.21278784 -0.46279836 -0.24565843 0.39650223 0.026734915 -0.5738999 -0.5716919 0.058349043 -0.8457474 -0.021730792 0.13997826 0.64609563 0.139182 -0.03342488 -0.16709395 0.5910476 0.5249363 -1.1043477
giardiniera 0.17647555 -0.07250999 0.31999463 0.42799369 -0.19449247 0.5254289 -0.1399318 0.9838698 -0.06812626 -0.5989583 -0.62944674 0.47244564 0.16270642 0.5123673 0.57349277 0.02208492 0.68000513 -0.09860239 -0.19382338 0.3811962 0.07481957 0.3660975 0.127264 -0.12065415 0.41679433 -0.38635692 -0.024501588 -0.1628668 -1.3942212 0.10056089 0.17724296 0.1631294 -0.38821906 -0.09863911 -0.12348952 -0.39405578 -0.22354186 -0.74613684 0.28670278 0.53918654 0.13068157 -0.40840644 0.94729483 -0.7496024 -0.39981544 -0.5868953 0.60503155 1.0360588 0.45130378 -0.34212363 -0.3261568 -0.4869489 -0.0034837655 -0.25776216 0.037772108 -0.4037704 -0.6091315 0.57654727 -0.11542842 0.45104483 0.16336338 0.010233488 0.182856 -0.5491621 0.20372434 0.19201532 0.1609577 -0.2149394 0.8841035 -0.26215604 -0.09310528 0.0041783503 -0.30840972 -0.52814347 -0.20181279 -0.2125736 0.046032034 0.4217729 -0.09156283 -0.41659293 -0.010191812 0.12922579 0.25377283 0.2986867 -0.046459943 0.35547435 -0.1688856 -0.20435399 0.13651584 0.122183986 -0.9570979 0.41441962 -0.08051957 0.37983006 0.9924191 -0.45443013 -0.5951186 0.14878266 0.21252549 -0.46333128
cajun -0.34885228 -0.0033427074 -0.2357009 0.017741265 -0.38466257 0.4133278 -0.073417805 0.8028818 -0.25677687 -0.64839804 -0.13019589 -0.034251664 -0.1656149 0.7072621 -0.017959928 1.0327544 0.3985692 -1.300298 -0.28553858 -0.2816274 0.35222426 -0.10893438 0.05345676 -0.31301314 0.0015540593 0.110505536 -0.3048594 0.10371576 -0.71876776 0.16437517 -0.45925462 -0.007923989 -0.55649966 -0.6141122 -0.33063835 -0.3987519 0.4219805 -0.19779721 -0.1375386 -0.0541757 0.009869372 -0.7610715 0.528599 -0.5999125 -0.14763652 -0.3545406 0.4977257 1.0790291 0.090771474 -0.06191343 0.14147304 -0.5363134 0.34218308 -0.25842774 0.17226334 -0.5858576 0.19328369 0.04940747 -0.39422864 0.024382375 -0.5006114 -0.6043195 -0.25187758 -0.1914571 0.27993786 0.61645 0.49136546 -0.40614828 -0.1007701 0.4176323 -0.022217378 0.09531797 -0.19237223 -0.14305559 -0.1842541 -0.44934842 -0.20624892 0.46072248 0.0029974075 0.053534422 -0.01154016 0.40124083 -0.3454504 -0.16763529 -0.79871833 0.9297931 -0.37642008 0.100018345 -0.19230928 0.39693764 -0.5143971 0.16294928 0.65079653 0.08879389 0.8402125 -0.5062488 -0.3808232 0.08038516 0.4443759 -0.6573988
veneziana -0.37717476 0.43526286 -0.48559627 -0.4123071 -0.07777662 0.59933275 0.2140843 0.73788995 -0.23891976 -0.86470824 0.060502727 0.566513 -0.19151546 0.04884698 0.8781988 0.12380614 0.79508907 -0.6582495 -0.4262617 -0.19440515 0.43185052 0.61582726 0.5661228 0.027335318 0.11329796 0.3516711 -0.060690172 0.22380327 -0.21653275 0.226909 -0.65352017 -0.17523123 -0.47396702 -0.63624364 0.24820127 -0.87199044 0.31103593 -0.1353219 0.2970274 0.58236074 0.30847755 -0.70896995 0.5644955 -0.24783365 0.11679755 -0.30985808 0.5948864 0.931819 0.20073578 -0.02709973 -0.42503807 -0.6645318 -0.3276803 -0.048897997 -0.07858296 0.037750036 0.3443202 0.029722491 0.17048189 0.5134135 -0.56519514 0.3021651 -0.5572287 0.34935722 0.26496175 -0.14907381 0.21271004 -0.7462961 0.44318798 -0.15206876 -0.21552591 0.29353693 -0.4853093 -0.38559374 -0.05481084 -0.44916078 -0.5910946 0.18793514 -0.6516695 -0.51370734 0.17859243 0.4229885 0.046473533 -0.28914925 0.12312696 1.2377819 -0.07203272 -0.0037936901 -0.6451426 0.65157807 -0.31437373 0.540074 -0.08658359 0.09653099 0.42163432 -0.1251892 -0.4796672 0.42154422 -0.17844473 -0.15248121
base -0.011900186 0.8033998 0.06319963 0.08576382 -0.34505796 -8.781642e-05 0.22915061 0.69351166 -0.6944342 -0.20703696 -0.23321727 0.099304065 -0.019002466 0.9155387 0.12117329 -0.12986198 -0.62828046 -1.0728924 0.18105762 -0.087439805 -0.35870114 -0.41439342 0.54203516 0.7351728 0.65524006 -0.6094966 -0.03640454 -0.029374162 0.28478155 -0.008551309 -0.16742775 -0.08270008 -0.5058827 -0.2765239 0.67653316 -0.17152205 0.05132155 -0.18065347 0.30981046 -0.009044332 -0.035760123 -0.06772291 0.7340702 -0.13479812 0.10753245 -0.27998582 0.6410137 0.7210809 0.15399882 -0.36572888 -0.10205817 -0.44046572 -0.6652762 0.108175755 0.27538028 -0.655333 -0.74035394 0.0914206 0.5356019 0.85641485 0.8233587 0.0553301 0.10916209 0.3890096 0.44350845 -0.29382667 0.37527004 -0.13640845 -0.24655032 0.61677474 0.055733126 0.019168502 -0.11971847 -0.49427214 0.00482602 -0.5981715 -0.6000548 -0.4451468 -0.0029968224 0.29497582 -0.32622626 0.3911064 -0.3441398 -0.24822858 -0.2831521 0.22541946 -0.8638882 0.06279338 0.5486268 0.21094951 0.16052206 0.54425734 -0.29048896 0.47301063 0.013535232 0.22512028 -0.16504143 0.19504425 0.530119 -0.2807086
http://www.co-ode.org/ontologies/pizza/pizza.owl#TomatoTopping -0.2349014 -0.4813903 -0.091314085 0.057697963 -0.32448372 0.13219121 0.020973446 0.0072902828 -0.65054595 0.43322816 -0.35475898 -0.40752935 0.14064634 0.6180937 0.38918516 0.48358598 0.5125828 -0.8384653 -0.11803639 -0.63381594 0.15872128 0.4964572 0.39495805 0.22308604 0.883546 0.36046252 -0.5758865 -0.47412646 -0.43232423 -0.17457809 -0.25793317 -0.03969649 0.004872548 0.380668 -0.59306973 0.19266792 0.5213284 -0.7422547 0.88431734 -0.13385531 -0.12637882 -0.8528475 -0.111520715 -0.025013423 0.025149602 0.079221405 0.51394546 0.15932684 -0.06050768 0.13838479 -1.1179322 -0.7357681 0.1889669 0.21561635 0.6433376 -0.0037523177 -0.2083312 0.6273283 0.27669144 0.69366133 -0.47031888 0.0020003568 -0.5376363 -0.17423004 0.0076780505 0.09288907 0.13273712 -0.4065554 -0.044206694 0.3033648 -0.17209893 -0.1624566 -0.20632215 -0.51231426 0.082127295 -0.13567312 0.40116894 -0.20508176 0.25300738 -0.38381287 -0.09223748 0.2280703 -0.37090364 -0.12447425 -0.2922845 -0.3870901 0.6153295 -0.37009788 -0.49422634 0.46831182 -1.0759729 -0.49413806 -0.09305488 -0.52524394 -0.109863795 -0.08925877 0.1865619 0.26361993 0.006649199 -0.015573739
http://www.co-ode.org/ontologies/pizza/pizza.owl#hasSpiciness 0.1408414 -0.080224484 0.27040005 0.9002564 -0.056772772 -0.050888594 0.44871426 0.26167905 0.08426435 0.4530898 -0.79692054 0.18140875 -0.31794932 0.38495392 0.8564209 0.15340896 0.2951244 -0.28679097 -0.11255862 -0.018626746 0.56100726 0.5742991 0.09431541 0.18832657 1.1222857 0.6793751 -0.2758444 0.048321106 -0.41655102 -0.60760576 -0.33008465 0.0670555 -0.055829592 0.05860312 -0.59280586 0.108273774 -0.09812418 -0.94453233 1.112365 0.026341444 0.23173372 -1.1229963 -0.08778357 -0.18321061 0.81579834 0.24871567 0.4928916 0.74345964 -0.15565024 0.014805804 -1.0379255 -0.899665 0.043783654 0.3007842 0.39793244 0.5987037 -0.36704868 0.0008112983 0.87704825 0.6712614 -0.6232447 0.31306526 -0.32807198 -0.34141204 0.03549547 -0.12036538 0.38444126 -0.5024016 -0.007617818 0.41251498 -0.62712353 -0.24544853 -0.1533789 0.4260777 -0.23870055 0.3231084 0.30978614 -0.0031595263 -0.4258316 0.005981015 0.15852351 0.15505177 -0.60222095 -0.20270973 -0.22720543 -0.5950443 0.3484171 -0.12072372 -0.4200725 0.1260381 -0.4093429 -0.11848261 -0.621049 -0.37821287 0.74793017 -0.9028482 -0.31550238 0.24953628 -0.16585407 -0.2143669
capricciosa -0.14351666 0.27683938 -0.2781544 -0.017237667 -0.30608606 0.49836314 -0.054840878 0.8555628 -0.34464735 -0.6644332 -0.27069244 0.6061254 -0.10657561 0.21897928 0.83443266 0.5964121 0.1888184 -0.7646705 -0.3268801 0.54214185 0.6930346 -0.20357278 0.45609605 -0.18100467 0.2656495 0.120015435 -0.30285993 -0.16684173 -0.19697346 0.1908462 -0.24941728 -0.2903147 -0.7235179 -0.52251375 0.10211633 -0.91402984 0.29880372 -0.77504057 0.12650892 0.31263003 0.42217782 -0.49855554 0.6758112 -0.85798097 -0.05001725 -0.19878006 0.5041302 1.0032918 0.61975586 -0.19945787 0.13224803 -0.44934928 -0.42554253 -0.48690572 0.23139748 -0.39373612 0.12219353 0.61637086 -0.16466585 0.56552815 -0.58266366 0.21156672 -0.12600994 0.15002565 0.31963888 -0.26757237 0.43926913 -0.76179385 0.42896885 -0.1501455 -0.16138342 0.098831154 -0.19367313 -0.8406151 0.025111543 -0.31436405 0.44466615 0.06464857 0.25560525 -0.56399757 -0.036064688 0.32397348 0.12893118 -0.08676589 0.12896097 0.3397548 0.056551903 -0.5311799 -0.051102955 0.46897796 -0.3518036 0.04998565 0.2576263 0.012821144 0.6242816 -0.42722183 -0.70856917 0.47262564 0.3943546 -0.55907923
siciliana -0.01040816 0.13298593 -1.0121611 -0.0116672 -0.12615265 -0.012449592 -0.35277078 0.89769965 -0.6559359 -0.17577352 -0.34719357 0.22930664 -0.0029938768 0.07053755 1.0122578 -0.0634138 -0.22298205 -0.83458483 -0.0024732843 0.10322085 0.7406051 0.16212639 0.8163293 -0.43335766 0.5656364 0.09424689 -0.365768 -0.41405395 0.016487889 0.25183675 -0.3371655 -0.46520784 -0.6778117 -0.4935154 0.079923354 -1.0474942 0.40752172 -0.7170991 0.23047817 0.24984112 0.47391668 -0.16671443 0.53608805 -0.9702386 -0.007315713 -0.38612765 0.028372817 0.5759493 0.8090647 -0.3150891 -0.23507889 -0.47652808 -0.15041924 0.027202964 0.091154285 -0.23251341 0.3033502 0.6009555 0.057987574 0.5795394 -0.54252756 0.40756455 0.09128646 -0.013775382 0.3594348 0.0552435 0.40635937 -0.6396566 0.07865022 0.04234489 -0.10040664 -0.24761896 0.118614696 -0.8098611 0.21773118 -0.37089786 0.35936195 -0.23088902 0.31778392 -0.41513425 0.15327223 0.17139836 -0.07411947 -0.06084909 -0.061598495 0.5430704 0.04504562 -0.40623316 -0.061816093 0.5951188 -0.37219828 -0.1451309 0.04068105 -0.28789333 0.09425539 0.0052829683 -0.35892838 0.4010062 0.10895254 -0.5951988
mushroom -0.11219883 0.23790516 -0.08950018 -0.040798273 -0.23288478 0.045118313 -0.3099973 0.7133369 -0.37446922 -0.673884 -0.05195506 0.49658483 0.21752815 0.27160287 0.56770575 -0.6967617 0.10982956 -0.543998 -0.17239967 0.15735565 0.053850103 0.42221245 0.30940235 0.14692976 0.5416593 0.122775584 0.24348453 0.033724308 -0.8438246 -0.6523669 0.18434025 0.57143563 -0.15259187 0.14440854 -0.34892327 -0.22646512 0.63089883 -0.18033837 0.20417689 0.06469438 -0.37268013 -0.42208344 0.84655815 -0.26915655 -0.31445307 -0.3005498 -0.003152124 0.62695736 0.43194637 -0.20022021 -0.29004937 -0.290167 -0.42568234 -0.28650066 0.38769838 -0.26080477 -0.8035159 0.5274854 0.2612628 0.6039162 0.15228601 0.30133435 0.3018346 -0.07730135 0.009228398 -0.12874891 0.07963814 0.04898569 0.11226521 0.19756359 -0.13552529 -0.006433946 0.0766447 -0.9589952 -0.24774808 -0.38938496 -0.062137954 -0.14700802 0.03576516 -0.59476763 -0.23012471 0.40902254 -0.16574821 -0.007734787 -0.35105547 0.8984893 0.14394286 -0.43866035 0.23218364 -0.2947441 -0.49209356 0.024899818 0.030622981 0.28308848 0.4612209 -0.39677975 -0.36052826 1.0130649 0.611117 -0.6355594
vegetabletopping -0.007365334 0.22631325 0.04876391 -0.120227545 0.18249668 -0.057506092 -0.52143836 0.63441414 -0.15448067 -0.52545786 -0.3349924 0.46779343 -0.28276137 0.08511117 1.0797793 -0.056434747 0.14476149 -0.13089305 -0.027417704 -0.23404504 0.21679537 0.56280893 0.3690634 -0.12409927 0.5739346 -0.17798662 0.18270408 -0.54896677 -0.5928259 -0.11369946 -0.072342016 -0.57162833 0.048251975 0.5075756 -0.20007823 -0.5249377 -0.045078926 -0.5281701 0.49315053 1.0880066 0.3016225 0.22471145 0.5844593 -0.26048794 -0.1104032 -0.80124557 0.22244488 0.59641147 0.41635004 -0.48913434 -0.38942015 -0.66314286 0.07529127 -0.38625932 0.3750126 0.13588652 -0.33487833 0.041561466 -0.39804736 0.4251466 0.37156332 0.4630637 -0.13611035 0.20213845 0.2809933 0.7309235 -0.093629315 -0.9665036 0.6595186 -0.14388183 -0.29308388 -0.4368024 -0.034830704 -0.8784658 0.2708505 -0.3468337 0.5868844 -0.042683538 -0.39792106 -0.41030017 0.20748222 0.06331217 -0.11115891 -0.4163349 -0.8727551 0.7116968 -0.47563118 -0.02359389 -0.69227785 0.6149862 -0.29869682 0.58983123 -0.26210943 0.0004352935 0.83338916 -0.22095829 -0.19047245 -0.4663302 -0.55010647 -0.1789519
seasons 0.20807105 0.381687 0.14919437 -0.27774802 0.13598497 0.50809634 0.24493933 1.1198285 -0.5249997 -0.18233359 -0.13032411 0.94131446 -0.33211762 0.028421484 0.88306826 -0.55049133 0.058982726 -0.35846812 -0.39662087 0.32077527 0.54760075 0.43883276 0.36994725 0.14120337 0.7750829 0.46541962 0.024458956 -0.3253491 -0.21934092 0.14116442 0.040199697 -0.43903264 -0.118581556 -0.04485658 -0.36481664 -0.96797997 0.42071044 -0.43029296 0.31123206 0.47041246 0.011713755 -0.76588327 0.9016958 -0.15762079 -0.2858869 -0.47603285 0.20805047 0.813149 1.063413 -0.6657486 -0.19320108 -1.0068614 -0.30136856 -0.33576778 0.46185374 -0.15818499 -0.32891065 0.7326054 0.14699548 0.37635723 0.10379068 0.85947245 0.124825045 0.220321 -0.2978016 -0.12640963 0.3446868 -0.6667903 0.28655982 0.391808 -0.02825731 0.27889097 -0.38436592 -1.0058521 -0.52378833 -0.4726378 0.11879511 0.40409252 -0.18451494 -0.5539325 -0.3112934 0.05426548 -0.136542 -0.10962202 0.34189802 0.287976 -0.1464564 -0.83644426 -0.17458887 0.020546393 -0.42816344 0.14382754 -0.15706602 -0.10077523 0.37724 -0.24532245 -0.51176685 1.2939848 0.57145137 -0.8295763
pollo -0.068706445 0.4489443 -0.7187138 -0.22179204 0.010098807 0.6872086 -0.260554 0.76659346 -0.72216964 -0.7244989 -0.5626464 0.57399595 0.091724284 0.4986141 0.13566694 0.0468937 0.23181036 -1.4429585 -0.5457636 -0.21021523 -0.2895921 -0.26471987 0.44405717 -0.09703472 0.685172 -0.33823395 -0.49207902 -0.5330077 -0.102933526 -0.51527345 -0.59653115 -0.00017363435 -0.08514816 -0.3582901 -0.5632949 -0.9752297 0.26217958 -0.0637963 0.15606369 0.02270795 0.17873473 -0.17554891 0.49859357 -0.6177408 -0.26911244 -0.97535753 0.51446193 0.27958092 0.16289464 -0.5009662 -0.33181056 -0.61355597 0.44454166 0.25229853 -0.15047921 -0.5176734 0.13253196 0.28154233 0.042346835 0.13915229 -0.5727148 -0.6357218 -0.13200319 0.3472053 0.36646718 0.07860961 0.45830524 -0.44109884 -0.023060886 0.028102966 -0.32884994 0.24447079 0.47789004 0.25896478 -0.3322625 -1.0385936 0.36747876 0.16418862 -0.3243212 0.15703984 0.27174872 0.061845895 -0.32133788 0.2748195 -0.35151523 0.4836734 -0.456575 0.37362552 0.35712454 0.9512558 -0.628196 -0.5117865 0.13561127 -0.29896748 1.0179697 0.029733174 0.04180447 0.027580634 0.27104026 -0.96230537
ad -0.10393636 0.6627598 -0.62342155 -0.7337484 -0.55385417 0.15192524 -0.53996044 0.9970873 -0.2707889 -0.6975954 -0.66108036 0.5055952 -0.31833678 0.76360315 0.023169091 0.22315823 -0.16747355 -1.1800282 -0.50828826 -0.5257566 0.3043664 0.27681157 0.7605453 -0.36488792 0.8002227 0.043393467 -0.48022386 -0.9666476 -0.13938992 -0.30923313 -0.8804247 0.4770536 0.21685894 -0.3023326 0.05961366 -0.04328707 0.43262246 -0.4766282 0.42107278 0.12498596 0.38070843 -0.15863775 0.17749222 -0.37477967 -0.42672908 -0.71591294 0.5934903 1.0646136 0.47165295 -0.47714525 -0.18476889 -0.24156925 0.5114582 0.46299055 -0.14773345 -0.80697066 0.05725276 0.07480691 -0.19852561 -0.21686098 -0.51815647 -0.2270608 -0.31523225 -0.031229377 0.21257699 0.036758963 0.15799822 -0.723823 -0.05959023 0.5200736 -0.23321848 -0.14134578 0.14360803 -0.32443103 -0.39187157 -0.7544731 -0.2937077 0.34052545 -0.3120784 -0.18508004 0.10740918 0.09231928 -0.60711396 0.43593568 -0.34818447 0.6284314 -0.6691066 -0.2316978 -0.34851038 0.904091 -0.63296527 -0.22156633 0.34250444 -0.41996056 0.6062103 0.106297575 0.03914945 0.16175954 0.78606457 -1.1841712
astra 0.28134945 0.45994303 -0.80572957 -0.5527922 -0.36806497 0.5560961 0.09134996 1.4164425 -0.76800054 -0.402393 -0.6588954 0.702827 -0.20885846 0.51698524 0.3720932 0.6452418 0.109297834 -1.0566888 -0.338234 -0.57980835 0.02103207 0.17888616 0.8047364 -0.24460024 0.737849 -0.3260843 -0.17311569 -0.61308265 -0.23625028 -0.66011006 -1.0801831 0.3009035 0.055626348 -0.54251564 -0.6021596 -1.0566056 0.36914393 -0.48331007 0.35266966 -0.006832792 0.2776426 -0.42587793 0.7180294 -0.72360426 -0.29824638 -0.70705575 0.36274412 0.39022037 0.74206734 -0.61139333 -0.15242554 -0.6437501 0.582662 -0.04867769 -0.042885337 -0.59927744 0.009552697 -0.1418304 -0.15568367 -0.2970902 -0.4935564 -0.28652763 -0.3783868 0.30213237 0.1366872 0.6243666 0.20761608 -0.25478536 -0.66225487 0.5859627 0.09658909 0.051969763 0.4924752 -0.29114053 -0.62176627 -0.4393092 -0.6435691 0.42683923 0.12983544 0.041704163 -0.22266163 0.2601303 -0.5154863 -0.11386216 -0.63013303 0.67730933 -0.32654673 0.17018057 0.2529651 0.45338783 -0.9275505 0.2934431 0.04477294 -0.48719904 0.9644942 0.37545654 -0.06249238 0.3112914 0.06551149 -1.1337734
vegetable -0.0042477646 0.23178732 -0.07214614 -0.16464578 0.1988765 -0.085093416 -0.55758876 0.58695567 -0.14594251 -0.4932232 -0.2323435 0.47498885 -0.24872911 -0.07106988 1.1317106 -0.14798483 0.21456596 -0.22835653 -0.13120323 -0.15666834 0.22245966 0.56261307 0.33928454 -0.25815696 0.5271132 -0.119391344 0.350321 -0.78759587 -0.5514861 -0.008996882 -0.1377555 -0.5443323 -0.0040343395 0.6227472 -0.29515484 -0.49941328 -0.08731586 -0.5904565 0.37364274 1.107493 0.341575 -0.03783585 0.62178326 -0.15894356 -0.09943853 -1.1021383 0.3450956 0.6754334 0.44997528 -0.5462061 -0.46680084 -0.65205085 0.11563174 -0.40588385 0.4273239 0.15822269 -0.21313769 0.24634439 -0.46779355 0.46787435 0.24208425 0.33810598 -0.2690701 0.19195397 0.29748374 0.72748643 -0.1197113 -1.003922 0.7573786 -0.05521855 -0.38870758 -0.4162208 -0.043931186 -0.75130683 0.21632847 -0.37011808 0.5660992 0.02962981 -0.42854553 -0.4866622 0.09944704 0.061600063 -0.091261275 -0.44521424 -0.68705976 0.7461481 -0.43234566 0.09887145 -0.6610697 0.607366 -0.30872816 0.49567768 -0.27446264 0.06789499 0.84298605 -0.06841193 -0.0630753 -0.43777472 -0.58330095 -0.2685187
http://www.co-ode.org/ontologies/pizza/pizza.owl#MozzarellaTopping -0.051551536 -0.4864985 0.042844012 0.08527581 -0.22409518 0.18849689 0.07655339 -0.07557525 -0.7708696 0.3474835 -0.37077814 -0.49393627 0.12171496 0.7634695 0.3203317 0.3066384 0.44160235 -0.876566 0.024856338 -0.5572558 0.21189791 0.35374495 0.45285988 0.25623953 0.7101745 0.20383497 -0.57787484 -0.5316602 -0.3862832 -0.05923518 -0.06692489 -0.20599557 0.108108364 0.28432232 -0.22346404 0.22781588 0.5061511 -0.76604545 0.649557 -0.29235065 -0.22660592 -0.79782134 0.049306963 -0.006925749 0.07200437 0.16164158 0.60819304 0.24821335 0.002408119 0.19509001 -1.0087327 -0.71685505 0.03923465 0.35825023 0.7566592 -0.20991331 -0.26109204 0.6115993 0.2826966 0.79480046 -0.5901309 -0.15177518 -0.62290144 -0.0054405956 0.02625298 -0.16769642 0.24624936 -0.123605475 0.111519545 0.522138 -0.151077 -0.03247413 -0.10776284 -0.61792123 0.16739978 -0.07012492 0.4248056 -0.18444468 0.29009324 -0.33951846 -0.11377964 0.10297449 -0.32904255 -0.13734524 -0.3564605 -0.27082396 0.54666674 -0.66987413 -0.27221665 0.38386866 -0.87245536 -0.3551916 0.08998871 -0.558305 -0.26044455 -0.09567455 0.0072589596 0.33095047 -0.029895842 0.015688462
some 0.122618504 -0.06817769 0.9245705 0.42414373 -0.6473474 -0.010982592 -0.3894247 0.0062496415 -0.33682588 0.33507058 -0.30050853 0.5997801 -0.827286 0.34322727 0.83073455 0.7356527 0.06492624 -0.31712106 -0.041112613 0.05602133 0.22715503 -0.09089015 0.017448233 0.43843982 0.619391 0.06962852 0.0670896 -0.2665151 0.29371783 0.14678317 -0.5552058 -0.17913453 -0.3532102 0.65020967 -0.37663364 -0.016695289 0.03974296 -0.09303707 0.5437383 0.42781195 -0.27490455 -0.19724438 -0.2282813 -0.21822515 -0.21421644 0.2052074 0.2692246 0.44586352 0.47211668 0.15832922 -0.79025793 -0.6922286 -0.3383333 0.0002745405 0.5973689 -0.28710002 -0.40846708 0.47964036 0.87832624 0.44633377 -0.2854613 -0.34935758 -0.8453873 0.14155345 0.41143692 -0.5961099 0.085316084 -0.29145175 0.27903846 -0.08587726 0.0143071925 -0.8029157 0.4477427 0.13823347 -0.43645626 -0.057246562 -0.21315438 0.019561032 -0.61015874 -0.19355702 0.1735511 0.38470188 -0.71558964 0.27853736 0.056958802 -0.21578537 -0.062400468 -0.3787818 0.08641282 -0.06624095 0.0180997 -0.46780166 -0.4938479 -0.25300917 0.6058697 -0.38223118 -0.13313586 -0.12998772 0.46833596 0.22461204
soho 0.49505198 0.446454 -0.8995643 -0.070588335 -0.3529658 -0.044636406 -0.34383547 0.6665695 -0.45125186 -0.07873421 -0.89068687 0.51364696 0.28631136 0.41298267 0.81086004 -0.062439673 0.14786279 -0.6623807 0.11699188 0.09619769 0.5665676 0.566995 0.89577097 -0.3963856 0.58399177 0.011211279 -0.12764181 -0.45051372 -0.37860632 0.36177933 -0.1226882 -0.24305545 -0.55430514 -0.38366726 0.10924293 -0.74830097 0.20419247 -0.8595392 0.31412363 0.59421796 0.24120958 -0.37650394 0.72304803 -0.8660457 -0.30958197 -0.3172148 0.40003344 0.11177464 0.16201137 -0.4501552 -0.48810166 -0.5643065 -0.0061198054 0.06431314 -0.02860026 -0.31062824 -0.12815847 0.016202066 0.44893596 0.6632018 -0.00654836 0.13209307 0.08905412 -0.21914302 -0.072240084 0.14919123 -0.124147244 -0.98354185 0.07630856 0.04666013 -0.3755205 -0.04203575 0.1805311 -0.3806271 -0.16909634 -0.28047502 -0.24353817 0.17413421 -0.36505154 -0.37823507 0.61558294 -0.025819417 -0.12905237 -0.1999122 -0.14011426 0.9458431 -0.20843229 -0.03775451 -0.109428324 0.93144745 -0.21089223 0.35359964 -0.1492825 -0.28166828 0.39075717 0.23961703 -0.42544636 -0.10300767 0.32463622 -0.74184304
fiorentina 0.4105577 0.17961901 -0.9823582 -0.014138704 -0.18312258 0.004901984 -0.5263269 0.7773065 -0.47819364 -0.102230124 -0.6801447 0.54118776 0.33542234 0.41238993 0.87296724 -0.10417368 0.16993913 -0.57372576 0.017987063 0.026288157 0.482479 0.40908724 0.9355107 -0.5360443 0.5164476 -0.05161104 -0.09078014 -0.44933525 -0.4669453 0.32579675 -0.17356429 -0.14662308 -0.5836729 -0.25932622 0.0546572 -0.8129702 0.12894605 -0.74690574 0.27875644 0.48568255 0.3155727 -0.51047 0.6843938 -0.78070784 -0.2068278 -0.38122535 0.39659077 0.18762003 0.17456159 -0.4469565 -0.57134783 -0.72903234 -0.031018296 0.21349558 -0.03485323 -0.1773928 -0.06040269 0.07235087 0.41850054 0.69869 0.109516814 0.32352725 0.025279028 -0.36119664 -0.01813369 0.18826889 -0.15914974 -1.0842036 0.012893658 -0.050275236 -0.24406667 -0.16946205 0.094102755 -0.23339017 -0.17172249 -0.4630887 -0.18633825 0.12284801 -0.3389658 -0.4423219 0.6063195 0.047138203 -0.1308138 -0.06388762 -0.06868212 0.9216386 -0.3688107 -0.03270773 -0.17708094 0.7975428 -0.21345447 0.396504 -0.31970516 -0.20230803 0.4100836 0.0018897151 -0.28731006 -0.04790781 0.23026772 -0.76064336
napoletana 0.14539742 0.536968 -0.5381548 -0.2415892 -0.31472975 0.6992089 0.13207646 0.95239955 -0.5409897 -0.43352726 -0.35790253 0.4912229 0.054160617 -0.140841 0.8042345 -0.26510936 0.27565256 -0.5574003 -0.15829377 0.2071248 0.6338434 0.3163416 0.53633934 0.1188836 0.3407353 0.5333855 -0.18889803 0.0044455808 0.03652119 0.085988075 -0.23240493 -0.17997907 -0.84842867 -0.4356156 0.155212 -0.9609254 0.4551353 -0.4122182 0.26559365 0.61255836 0.20493384 -0.638716 0.72818166 -0.4964755 -0.06781544 0.0012563347 0.604532 0.5637728 0.4491552 -0.3409554 -0.42561632 -0.69851285 -0.60599583 -0.32986638 0.44147107 -0.23068996 0.34164718 0.50787 0.25860196 0.8686268 -0.30240697 0.35664815 0.0012594338 0.31406134 0.019003188 -0.37157664 0.24969111 -1.1015333 0.2724603 0.1272156 -0.3243176 0.1541381 -0.037920516 -0.6111139 -0.34714293 -0.5573394 -0.2978139 0.24939515 -0.10759408 -0.42659348 -0.0032257172 0.10638023 -0.01941517 -0.077188626 0.11817567 0.7047183 -0.09186712 -0.53704727 -0.36281312 0.48338982 -0.1158519 0.27812657 -0.123096384 -0.030624503 0.26592237 -0.023384066 -0.3720164 0.5755732 0.16442709 -0.4999853
olive -0.13493057 0.68388915 -0.30107737 -0.14750876 -0.2735173 -0.1812115 -0.23428518 0.35609406 -0.6510029 -0.59561485 -0.23363365 0.5032999 0.17020102 0.27473307 0.90883434 -0.36653534 0.07092316 -0.6507594 0.014033119 0.4942028 -0.10115956 -0.054110475 0.62223095 0.038014118 0.5322339 0.20496017 -0.20569594 0.14280319 -0.6620305 -0.2289482 -0.22611886 0.31003886 -0.6766677 0.13255996 0.12685405 0.08361126 0.7092881 -0.5427314 0.27767304 0.120022394 -0.4778268 -0.54819155 0.5744809 -0.47636166 -0.24932824 -0.43245336 0.12089321 0.5628677 0.285418 -0.024822688 -0.17712641 -0.6648025 -0.7232436 -0.3053867 0.46230108 -0.18283968 -0.49498698 0.33486685 0.53310204 0.81264436 0.084988855 0.2535035 0.07435305 0.16854952 0.23204264 -0.3463631 0.108320676 -0.38008288 0.053301625 0.15523908 -0.17247546 -0.2756488 0.24517575 -0.4812002 -0.38251385 -0.2717918 -0.1650659 -0.2867094 -0.33335307 -0.5210579 0.4187837 0.10153843 -0.27859423 -0.04346025 -0.2003926 0.9498814 0.32394722 -0.22541958 0.3624238 -0.110723406 0.12209348 0.1401412 0.086885415 -0.25775796 0.43478957 -0.041473873 -0.66688204 0.6327211 0.4979194 -0.45085
SubClassOf -0.08880426 -0.48952886 0.07542717 0.27960157 0.08680956 0.8871754 0.4361083 0.26037407 0.09620987 -0.06844417 -0.40592426 0.2020134 0.044677924 0.85848707 0.41955858 0.298746 0.09602434 -0.059811033 0.00011193219 -0.0418763 0.5036967 0.398614 0.6776306 0.23891956 0.90763247 0.0962381 -0.43383294 -0.06372801 -0.3832079 -0.3081818 0.21215887 0.29056746 0.25559372 -0.07004549 -0.58200675 0.11798051 0.4226802 -0.9842145 0.6038178 -0.12491855 -0.36114827 -0.41717744 -0.15053801 -0.11025867 0.28084645 0.18651575 0.57585907 0.2913077 -0.04393293 0.0062861107 -0.88967896 -0.69974 0.059045956 0.7346508 -0.0011150474 0.3127967 -0.2896031 0.69743127 0.27736986 0.912345 -0.043136172 0.19907352 -0.12721615 0.2710485 -0.11973194 -0.18900761 0.058188006 -0.3304924 0.09917434 0.18015017 -0.15003298 -0.07730061 0.18252248 0.06478688 -0.490189 -0.5833184 0.08654451 -0.13115756 -0.341501 0.020239478 0.36623716 0.16859679 -0.63196397 -0.0043010185 -0.045625497 -0.32032114 0.9834969 -0.22160393 -0.7247116 0.15770285 -0.44870248 0.04255311 -0.49694976 -0.30633846 0.41915408 -0.7186646 -0.2504802 0.5976992 0.21208416 -0.2233796
country -0.042040035 0.31682682 0.19013977 -0.15637285 -0.59025645 0.3819323 -0.09754608 0.8246411 -0.17634144 -0.5955573 0.18805704 0.6826621 0.7730493 -0.0111460835 -0.09156815 -0.11403346 -0.09956555 -1.146211 0.42798582 -0.2639071 -0.029397603 -0.05442361 0.19931228 0.5343823 0.32133502 0.23509482 0.025848 -0.06325352 0.5327747 -0.017109932 -0.24925831 0.10668351 -0.22357872 -0.25448227 0.24476664 -0.7719532 -0.037503414 -0.27377754 -0.38014743 1.0240219 -0.30706936 -0.9403617 0.50411165 0.023574416 0.1457123 -0.21783942 0.45483065 1.0577171 0.35479206 -0.2277163 -0.23227486 -0.13598123 -0.59828204 0.13103573 0.85879064 -0.32446337 0.04182635 -0.43001783 0.015978893 0.913027 0.25410947 -0.5157007 -0.31113428 0.60382414 0.0042011207 -0.44741407 0.14155458 -0.53559834 -0.12342948 -0.13704924 0.012539696 -0.13743459 0.018486632 -0.5768023 -0.7233131 -0.7094852 -0.088566825 -0.13896774 -0.76827556 0.03309107 0.66934776 0.7440189 -0.5356885 0.29946998 0.120466426 0.6297892 -0.33712754 -0.27245018 0.57497716 0.13905163 0.10161159 0.8238446 0.28666875 -0.3807483 0.6503421 0.22462076 0.08925453 0.8037341 0.043785505 -0.19201231
sloppy -0.0361422 -0.20912622 0.119853385 0.3074839 -0.1444662 0.019266633 0.13177508 0.76173776 -0.16348352 -0.99840707 -0.46158588 0.11839195 0.099770196 0.38084048 0.7437309 0.12641035 0.72142535 -0.61525774 -0.6615919 -0.4813658 0.017932903 0.61663854 0.41543847 0.7422771 0.32538608 -0.28843454 -0.07340153 -0.17203769 -0.73299503 -0.19022347 -0.71112806 -0.032631747 -0.412216 -0.7841039 -0.50920105 -0.14105082 -0.15868123 0.34703237 0.59115094 0.5556116 0.045280695 -0.3838909 0.430518 0.2769822 0.08957783 -0.6555291 0.75531715 1.2696524 0.63460654 0.032834236 -0.3705856 -0.3129852 0.3194937 -0.18590754 0.35553694 -0.5245493 -0.43531835 0.41943932 0.2007783 -0.12340068 0.11363956 -0.5909964 -0.38471168 0.16221851 0.21564493 0.09633628 0.16575985 -0.03160935 -0.07209178 0.33159193 -0.010265017 0.39931905 -0.4303093 -0.72222066 0.07208506 -0.97847235 -0.3391291 0.34987807 -0.19493344 -0.71114486 -0.12284795 1.0926403 -0.14954303 0.023811249 0.35322315 0.66941005 -0.4899222 0.3305437 -0.21920642 0.32767364 -0.62576777 0.47683093 -0.0322125 0.42658323 1.0501575 0.1452604 -0.38901952 0.64646757 -0.4701625 0.13331503
giuseppe -0.21824256 0.33036315 -0.28691223 0.063702516 -0.29683015 0.42453915 -0.07890798 1.026914 -0.50795233 -0.9059426 0.14391738 0.7653493 -0.04024273 0.3434225 0.4147335 0.49931842 0.5887795 -1.115738 -0.17865168 -0.7171321 0.15654987 0.57845205 0.3881004 0.49945536 0.7209821 -0.23570038 0.23975573 -0.6938386 -0.8928814 -0.019578336 -0.46959186 0.18786594 -0.4116742 -0.23684864 -0.3916358 -0.7665692 -0.0059917886 0.16368173 0.4543516 0.1655704 0.07785164 -0.5339165 0.26168954 -0.049897052 -0.02756902 -0.52974707 0.80802566 1.0061393 0.24431932 0.37682068 -0.44893903 -0.32883838 -0.057687405 -0.2404575 0.6654855 -0.34782222 0.0294704 0.84108657 -0.2397429 -0.23013107 -0.22976834 -0.061750494 -0.31719768 0.5763186 -0.4069246 -0.4565214 -0.34529656 0.075000755 0.050704222 0.22697036 0.4933581 0.81811994 -0.2830153 -0.85000134 0.1690565 -0.56133753 -0.3867468 -0.10183232 -0.11265839 -0.47355804 -0.5950153 1.2369094 -0.4734261 -0.18915948 -0.26318693 0.75601274 -0.5907965 0.47078168 -0.19177718 0.9362176 -1.0637394 -0.06538465 0.22203171 0.46637496 0.811886 -0.42738497 0.1764204 0.3641657 -0.0007849788 0.30455872
prince 0.7053552 0.18900503 -0.24683782 0.05867099 -0.6049419 0.09667823 0.19425333 0.9677235 -0.27970314 0.104240775 -0.80092126 0.39224735 0.13232148 0.82741886 0.17370288 0.043632075 0.23348367 -0.90273577 -0.11949133 0.09029437 0.5234531 0.699564 -0.008595803 -0.052678302 0.2577201 -0.21668556 0.34005868 -0.84265155 -0.91218626 0.30181703 0.39582202 -0.2465956 -0.4826603 -0.30115122 -0.32124043 0.14488722 -0.21810222 -1.0569993 0.13782784 0.3933624 0.4104943 -0.54309833 0.9426499 0.23593049 -0.2362643 -0.3692641 1.1185067 0.6281258 -0.011967149 -0.60284287 -0.4851984 -0.23251264 0.26806065 0.44292927 0.20099612 -0.6228478 -0.5430932 0.36434934 0.22726296 0.709904 0.26466468 -0.46300286 -0.017519994 -0.39941147 -0.5589789 -0.09084637 -0.48541757 -0.741802 -0.009773016 0.016732229 -0.08908028 0.39940658 0.18324198 -0.7510966 -0.55442387 -0.43346298 -0.6435414 0.40786594 -0.6361137 -0.18808232 0.42670736 -0.09495254 -0.10707046 0.1882865 0.0824386 0.1630605 -0.71868324 0.51525134 0.26112598 0.2989224 -0.4601144 0.4568813 -0.6292171 -0.12983839 0.8656592 -0.27377814 0.2524341 0.25221485 0.5027879 -0.8267479
carlo 0.9610303 -0.01094962 -0.7815501 0.08681041 -0.16946436 0.43750414 -0.41926795 0.4470226 -0.4503581 0.494488 -0.5970133 0.9089046 0.5677912 0.92053103 0.36269513 0.18745545 0.2712246 -0.69487166 -0.15340318 -0.005565535 0.26745242 0.39383537 0.70727736 0.4300526 0.5884517 -0.3679044 0.10646657 -0.68507075 -0.85530674 -0.33860558 0.09459589 0.21646605 -0.34792525 -0.27607515 -0.60256445 -0.33875242 -0.7223711 -0.46983284 0.53429013 0.9598929 0.13468564 -1.0096015 0.69715273 0.035025343 -0.1874858 -0.014343971 0.6280056 0.2243081 -0.15571436 -0.36890763 -0.26477414 -0.84046465 0.122520104 0.27382705 0.3452282 -0.33995044 -0.8254758 0.22586882 0.30994272 0.39638025 -0.012183728 -0.43446377 0.13180017 -0.64877987 -0.6756224 -0.06270969 -0.2082549 -0.906502 -0.08022719 0.0151724685 0.03384313 0.5068358 -0.26607317 -0.37784693 -0.1704656 -0.49212804 -0.27548718 0.56343997 -0.35491073 -0.38638574 0.020063411 0.48767084 0.17152311 -0.6201413 -0.019142764 0.82013637 -0.93417245 0.62492275 0.42816284 0.7735884 -0.80837643 0.4434038 -0.5489278 0.09183166 0.9572719 -0.07328164 -0.036525678 0.55311084 0.50748575 -0.19649765
olivetopping -0.07884343 0.97364265 -0.33477956 -0.13119172 -0.35283998 -0.22014356 -0.09387997 0.55765444 -0.5256447 -0.4512406 -0.24130575 0.51639414 0.21629383 0.19804275 0.8256974 -0.51977515 0.06609829 -0.7385218 0.022225982 0.32837266 -0.43835622 -0.04738989 0.81608164 0.07449237 0.6272163 0.12950642 -0.40365455 0.17639646 -0.46707314 -0.21455808 -0.3718065 0.3378089 -0.58721846 0.14012454 0.23602727 0.018391758 0.538055 -0.57865566 0.15606625 0.42256317 -0.15686119 -0.6520991 0.8192654 -0.36105973 -0.42205864 -0.62131685 0.2652776 0.7488837 0.4666448 -0.13506772 -0.17156637 -0.69227743 -1.157569 -0.19442086 0.395039 -0.21460846 -0.5184612 0.3020044 0.43813086 0.7301847 0.27277762 0.46270534 0.16745277 0.11507152 0.39027515 -0.3754129 0.07649882 -0.45010936 0.1483286 0.2509913 -0.24300675 -0.5466955 0.2381627 -0.28175136 -0.4613923 -0.5051232 -0.16719714 -0.4975628 -0.37942785 -0.3835572 0.18698284 0.096010186 -0.19430608 -0.012419116 -0.21827129 0.87304646 0.18563965 -0.023466332 0.50627106 -0.35489464 0.19499527 0.120064944 0.07465068 -0.046873543 0.29172033 0.056668058 -0.31668112 0.62867105 0.49314952 -0.6834311
parmese 0.4254358 -0.2500628 -0.8687139 0.47289476 -0.4651799 -0.15188089 -0.38448748 0.35924944 -0.2580945 0.0685138 -0.3362654 0.70550007 0.43824968 0.37917787 0.75103706 0.31784156 0.12220057 -1.0371078 0.037757147 0.092933476 0.6205129 0.21115021 0.7500898 -0.10687745 0.1746828 -0.22955391 0.31712168 -0.69693613 -0.6975467 0.23076709 0.15579957 -0.4530875 -0.5296076 -0.57845205 -0.26343054 -0.5230242 -0.38889483 -1.013189 0.18661371 0.43181428 0.6395692 -0.59765494 0.742571 -0.49037167 0.10798484 -0.28802618 0.4426054 0.74455816 0.33085322 -0.27426624 -0.03456322 -0.03993568 -0.35598856 0.4564294 0.086600386 -0.27384216 -0.31194276 0.45081264 0.34354478 0.5756285 -0.15953322 -0.056767352 -0.43172374 -0.42218667 -0.06350395 -0.2327054 -0.19664717 -0.5641787 -0.16833568 -0.1858672 -0.12088948 -0.070248246 0.011980958 -0.7518577 0.43700528 -0.38878366 0.24014407 -0.56202674 -0.47199184 -0.72961307 0.16031839 0.5098321 0.36030933 -0.11684288 -0.00032600507 0.80250996 -0.49916342 0.34665018 0.33705243 0.8190064 -0.39383098 0.0042933226 -0.26258233 0.16791266 0.5943057 0.03597871 -0.14697918 0.604075 0.09722664 -0.3939063
reine -0.21536224 0.1187899 -0.4670816 0.57034546 -0.5048745 -0.1888685 -0.35581636 1.2402316 -0.3134086 -0.6107898 0.012037444 0.9060726 -0.15376209 0.4522538 0.78863543 -0.5032944 -0.0011132868 -0.47611347 0.033356376 0.23008958 0.30043617 0.48519585 0.89401287 -0.12934385 0.49812925 0.036737293 -0.124038145 -0.25150368 -0.77386045 -0.14340606 -0.25323418 -0.21652961 -0.24897961 -0.42501035 -0.36834505 -0.6387589 0.50254744 -0.86775297 -0.11510868 0.78465056 0.25342825 -0.062084362 0.85598874 -0.734228 0.07598778 -0.93426585 0.047227375 1.1653963 0.62834066 -0.6570226 -0.5633952 -0.1676858 -0.6581107 0.19502716 0.12666759 -0.33036867 -0.37808874 0.32160434 -0.021276329 0.7626242 -0.078878894 0.40792662 -0.21717161 -0.16816288 0.40371877 -0.28718588 0.26903605 -0.16805306 0.50551367 0.08036525 0.052240826 0.086708784 0.16722512 -0.88139826 0.15747645 -1.0361462 0.19654194 -0.38921514 -0.19743319 -1.0009387 -0.55087686 1.0059799 0.315181 -0.3146603 -0.3467166 1.126587 0.088010885 -0.34787706 0.33857626 0.19890995 -0.3928344 -0.030982515 -0.299046 0.0017440731 0.7353883 0.19450597 -0.7829109 1.035598 0.42947915 -0.43746966
la 0.39030337 0.036362324 -0.67768174 0.18160985 -0.31438017 -0.24500115 -0.22262087 1.2341757 -0.14858529 -0.5349987 -0.43989748 0.58264905 -0.010317585 -0.22013791 0.7258865 -0.5852095 0.043654792 -1.00298 0.04079463 0.44112957 -0.12114964 0.4318543 0.61315066 0.45412 0.80691177 -0.33201802 0.31273475 -0.3213182 -0.6540208 -0.32244435 0.15348987 0.006391565 -0.5591144 -0.22976731 0.41366833 -1.0994277 -0.1314121 -0.24377368 0.58374494 0.22087076 -0.12999432 -0.43034482 0.45812723 -0.16862744 -0.35471857 -0.9492931 0.15102185 1.2223239 0.9133922 -0.20064807 -0.34322867 -0.008286734 -0.4844296 -0.05248361 0.33618426 -0.067709886 -0.4059254 0.6451415 0.073867835 0.7424824 -0.42950258 0.4988696 0.08017987 -0.20643468 0.34788778 -0.41666 0.35440564 -0.49298984 -0.1390416 -0.42071 -0.24081136 -0.3456205 -0.005387983 -0.93586457 0.366422 -0.4018075 0.27072003 -0.20727842 -0.5370569 -0.36838284 0.046263937 0.52147126 0.31934822 0.19977812 -0.39642996 0.61234623 0.08496207 -0.047201794 0.3707596 0.21199712 -0.82568544 0.03377063 0.31530145 0.25821602 0.14111017 -0.277512 -0.03229162 0.8063401 0.5232532 -1.119259
cheese 0.3252409 0.48050296 0.04866233 -0.07872739 0.10661131 -0.018110137 -0.1444915 0.1791851 -0.5129061 -0.21097644 -0.07764912 0.60932064 0.16401222 0.21785724 0.5858787 0.07271187 -0.2012656 -0.8356494 0.26964748 0.12876697 0.37206057 -0.18765233 0.06060637 0.12613383 0.39617863 0.5476384 0.46254915 -0.27478552 0.106528856 -0.2068885 0.80372053 0.16312395 -0.15786648 0.65897995 -0.74602664 -0.58564234 0.20957899 -0.68861294 0.14298464 0.13621922 0.3661457 -0.86966604 1.0388451 0.3159497 0.05009353 0.00032103242 0.35086283 0.22819291 -0.24590588 -0.23522586 -0.28785014 -0.95215285 -0.15413065 0.05721834 0.39850688 0.09390694 -0.91559726 0.49457395 0.046085384 0.18958916 0.29718095 0.85506564 -0.83621216 -0.49042618 -0.30858478 -0.109119266 -0.15045324 -1.1385701 -0.4812866 0.4906927 -0.9431291 -0.047082115 -0.04686251 -0.33708426 0.033962693 -0.48387036 -0.14344193 -0.6540083 -0.13442858 -0.39387643 0.47451758 0.16936469 -0.23220544 -0.166855 -0.13429578 0.82653934 -0.7587148 0.022652192 -0.7923034 0.48276758 -0.45157906 0.5328558 -0.70950174 0.4668418 0.33560067 -0.0891123 -0.1297739 0.63032556 -0.0329792 -0.64748955
vegetarian -0.28368804 0.4014359 0.049809534 -0.55882543 0.47566926 0.13270156 -0.8117979 0.40593892 -0.38547423 -0.24794608 0.39869976 0.09544542 0.0032433472 1.081975 0.015068984 -0.0007592657 0.6977044 -1.056022 -0.0884318 -0.09797886 -0.087725274 -0.32665956 0.47619823 -0.1801121 -0.10698873 -0.20736243 -0.38771492 0.06281907 -0.3420516 -0.32277068 -0.3395857 -0.20035332 0.0982573 0.111807354 0.043376423 -0.5544884 -0.6345264 0.010169408 -0.40235737 0.33441293 0.28310847 -1.1174816 0.9891401 0.14219509 0.07231273 0.014726763 0.8202317 0.99094254 -0.46759546 0.15753011 -0.46579126 -0.38548934 -0.19445944 -0.25044826 -0.32578743 -0.047163866 -0.89492553 0.55758166 0.6387497 0.46100137 -0.12864432 0.18672815 -0.25869223 -0.42957103 -0.23399612 0.44063792 -0.053514842 -0.20211011 0.39752933 0.64797384 -0.26811206 -0.3372184 0.46914697 -0.77805704 -0.21597783 -0.13214527 0.3336494 -0.32401493 0.3534433 0.42189145 0.06989678 0.37120342 -0.7332036 -0.35735267 -0.6524271 0.82949805 -0.38900796 0.43266854 -0.44251883 -0.1489714 0.031212933 -0.05432114 -0.3952199 -0.13774183 -0.048834745 -0.2879577 -0.30226493 0.025768146 -0.13943882 -0.7246779
origin 0.15024658 0.54322815 0.31610516 -0.21090397 -0.8171513 0.6527881 -0.32809153 0.8256332 -0.15141143 -0.76288295 -0.0015401196 0.84855705 0.4544677 0.3482322 0.69555837 0.20674063 0.27847838 -1.7408599 0.014519682 0.5858587 -0.40012184 -0.3368661 0.18644534 0.49142304 0.46347848 0.39397025 0.6160984 -0.013515543 0.071932994 -0.25139135 -0.39057586 0.24374592 -0.9300815 -0.09695615 0.5572075 -0.4763577 0.3111881 -0.3409273 0.1545103 0.47357622 -0.14082283 -0.71988153 0.28024247 -0.012240513 -0.034890078 -0.3742568 0.2124934 0.9376916 -0.08162642 -0.41591442 0.14838618 -0.02717672 -0.5729618 0.103772394 0.54854673 -0.6579953 -0.030328624 -0.14129473 0.8378666 0.83128405 0.32148954 -0.2924111 -0.23325174 0.86734897 0.2511249 -0.54357195 -0.042679623 -0.64924383 -0.23673233 0.2691947 0.30201045 -0.13918096 -0.17123386 -0.25273216 -0.37819827 -0.9396572 0.049917724 0.23376584 -0.9009981 -0.047962908 0.23147258 0.546913 -0.62063456 0.062472086 0.10169474 0.9633115 -0.99335116 -0.18768805 0.32315987 0.7596026 0.02994538 0.78386205 -0.022225007 0.082342334 0.50513667 0.5550262 -0.46954986 0.96880466 -0.18187867 -0.90833515
mild -0.2718326 -0.36933962 0.120219015 0.15966919 -0.15936117 0.48231104 -0.22785753 0.20561785 0.22523993 -0.5565377 -0.18341745 0.20557614 -0.37428156 0.241268 0.4897282 0.51442856 0.3728911 -0.25700033 0.23706579 0.19428901 0.50258744 0.30587888 -0.31935894 0.019369088 0.80972964 -0.34425372 0.06918631 -0.23483306 -0.22019143 -0.20343745 0.09057256 -0.13019668 -0.251724 0.092122264 -0.9588123 -0.7186347 0.48813704 -0.7374031 0.96069133 0.6426839 0.4486545 -0.015142218 0.6727196 -0.40405297 -0.14414077 -0.019801931 0.18711394 0.36183208 0.52808696 -0.39273116 -0.021586172 -0.94590396 -0.31405345 0.534145 -0.0067698867 -0.08298562 -0.3931747 -0.24857207 -0.32708365 0.42767406 0.35710952 0.4701254 -0.107594386 -0.19361581 0.23440388 0.11717075 0.18719125 -0.8492915 -0.33860776 -0.21233127 0.13531196 -0.46902993 -0.23158452 -0.36884797 -0.36768678 0.17500971 0.31021205 -0.6411151 -0.43411207 -0.6397211 0.628972 -0.021147577 -0.37545264 -0.39802232 -0.47577056 0.35539764 -0.8670755 -0.44462386 -0.38838303 0.25670505 -0.48116794 0.10774989 -0.4776371 -0.01851902 0.5079013 -0.5682251 -0.16661052 0.28795177 0.23703638 -0.20743383
caprina 0.015815962 -0.2213659 -0.46873966 0.45765555 -0.050047092 0.3368467 -0.0875036 0.37651205 -0.4390054 -0.3754198 -0.02238172 0.07029938 0.121167906 0.15681067 0.20065436 -0.19477558 0.5711489 -0.67614794 0.18564151 -0.26411346 0.32658806 0.4270582 0.15181074 0.079774864 0.5247671 0.25302088 0.32120192 -0.10455015 -0.48780343 -0.2012898 0.22039825 0.34274417 -0.6376518 -0.11991795 -0.4790331 -0.9773038 0.091667786 -0.2960818 -0.02414563 0.21546023 0.76378393 -0.78344166 0.69918174 -0.05691356 -0.17125896 0.37335262 0.14871603 0.6772357 0.21867266 -0.14014943 -0.27891642 -0.7545094 -0.10419894 0.34027994 0.4215984 -0.26740062 -0.3072981 0.81677103 0.5385583 0.34707326 0.0394997 0.5917886 -0.6467624 -0.6920173 -0.26317462 0.20437647 -0.13369891 -0.6061801 -0.63011074 0.28695276 -0.39292428 0.081068635 -0.26510173 -0.013271499 0.26874897 -0.53849024 -0.45357478 -0.7186774 0.0527658 -0.55902565 0.3969661 0.66785014 -0.45314965 0.46061653 0.17344901 0.97421014 -0.64247876 -0.08152517 -0.5879225 0.32594246 -0.61554337 0.40937772 -0.15980335 0.41884568 0.29654476 0.30740166 -0.24662876 0.8286833 0.1313672 -0.45623934
onion -0.61684 1.1130507 -0.3277886 -0.50370616 -0.31674448 0.17749673 0.04533023 0.56189144 -0.47502053 -1.1076392 -0.3261003 0.43180358 -0.31461975 0.24599802 0.5137524 0.4403533 0.5198786 -0.9618578 -0.44015926 -0.63654214 -0.88463783 -0.14594145 0.6935581 0.22584468 0.7688795 -0.32094902 -0.6733173 -0.09453695 -0.5648451 -0.5339279 -1.2860261 0.31627515 -0.30587444 -0.13536178 0.07284091 0.27359223 0.45762467 0.151095 0.6321551 0.19097671 0.1933035 -0.21729264 0.6034937 -0.15866902 -0.33075562 -0.7826317 0.67475206 0.7184653 0.31119853 0.30117777 -0.3794034 -0.50241536 -0.45873588 -0.16542971 0.22026624 -0.19773968 -0.42437482 0.16943297 0.19072586 -0.31800652 -0.0020939866 -0.15394221 -0.20646337 0.4352836 0.15594117 -0.07915458 -0.20998575 -0.16129902 0.0044940757 0.17935064 -0.062165927 -0.044290256 -0.041899636 -0.17208399 -0.4695998 -0.45314932 -0.7070822 -0.57994807 -0.3512026 -0.13703215 0.2340319 0.57003933 -0.4081035 0.065827966 -0.37520838 0.8579439 -0.2942681 0.76932114 0.10868715 -0.054143883 -0.6670197 0.16170616 0.14925104 0.07811124 0.8456463 0.07636958 0.12516099 0.14423826 -0.042682014 -0.31810012
http://www.co-ode.org/ontologies/pizza/pizza.owl#NamedPizza -0.22421688 -0.11580927 0.25883722 0.24050698 -0.8425384 -0.22091365 0.3727835 0.2943287 -0.50723934 0.9059818 -0.37344554 -0.5454569 0.47759786 0.5770516 0.32543012 0.2264341 0.6899762 -1.3471792 0.057192445 -0.74902296 -0.31843266 0.5304101 0.26440957 0.36257443 0.9509327 0.09203043 -0.6105614 -0.63663304 -0.2780507 0.025157077 -0.52002203 -0.5851103 0.2286989 0.42410982 -0.14552416 -0.0102478145 0.18355796 -0.8440716 0.6223986 0.18619183 0.08134117 -1.3425099 0.040812567 0.16097938 -0.43035808 -0.074079394 0.56846184 0.8391851 0.14843354 -0.18605824 -1.4118282 -0.30241424 -0.037201647 0.43489859 0.4430692 -0.01999571 0.0050116517 0.36241472 0.35546973 0.41917297 -0.47970244 -0.10370055 -0.7167661 -0.34750623 0.33174568 -0.10470777 0.062224396 -0.31802246 0.3213512 0.5835073 -0.016432893 -0.68133897 -0.30637115 -0.21750332 0.12418888 -0.052746758 0.45714298 -0.47246668 0.25321564 -0.22459093 -0.65819436 0.32357192 -0.3201802 0.12821448 -0.12550221 -0.6598441 0.028113859 -0.5512912 0.11701204 0.041835304 -0.60508245 -0.82108194 -0.012076713 -0.07006761 -0.4819998 0.1036951 0.8790682 0.31275403 -0.0035281952 -0.03497221
or 0.019999702 -0.18340175 0.75118804 0.25734618 0.23526704 0.40614215 -0.26509118 -0.1021842 -0.53904635 0.0060209925 -0.4817923 0.7915106 -0.61179894 0.45107397 0.6705705 0.6022426 0.21942572 -0.3170457 -0.11462736 0.19431216 0.5589778 0.12715663 -0.068650514 -0.007969829 0.37825984 0.12535994 0.45123434 -0.19520462 -0.18010637 -0.49575788 -0.14053571 -0.34740573 -0.27514917 0.36503202 -0.29274383 -0.1626995 -0.092358395 -0.20314722 0.13696161 0.10159425 -0.575661 0.23392157 -0.12553471 -0.73003614 0.49515998 0.3827478 -0.060539078 0.27287653 0.068603456 -0.5204633 -0.32352993 -0.51333714 0.29495102 -0.4627988 0.8282375 0.3101269 -0.53531516 0.4501175 0.90270096 0.980535 -0.22950925 -0.26794332 -0.683039 0.4592965 0.099148914 0.38545614 0.33579916 0.08582027 -0.034825664 -0.27286068 -0.11551084 -0.4187361 0.41192526 -0.25788012 -0.10948613 0.3153817 0.01939074 0.32578033 -0.49475482 -0.12189163 0.4170679 0.6377737 -1.0532964 0.2603518 -0.5622569 0.64102286 -0.0015648393 -0.4282553 -0.40935937 0.31102723 -0.2089138 0.5985683 0.2945699 -0.41254193 1.0457726 -0.7367294 -0.93455267 0.28788653 0.2302354 -0.006434855
http://www.w3.org/2004/02/skos/core#altLabel 0.10128505 -0.5634326 0.33884114 0.16636898 -0.23714691 0.21963759 0.13117371 0.052132796 -0.31217426 0.4947978 -0.15020202 -0.044448085 0.2702844 0.61986315 0.63876194 0.15074912 0.7531563 -0.86128604 -0.20496085 -0.3680025 0.021407828 0.09298201 0.82435066 0.17934962 0.7396965 -0.20575292 -0.28414354 -0.73821974 -0.27509966 -0.24597685 -0.07246085 -0.469745 0.26098713 0.277359 -0.72820723 0.36671028 0.42924085 -0.99951166 0.110376306 0.39586166 0.043977767 -0.5394341 -0.09252987 -0.314808 -0.3056762 0.076241106 0.38677108 0.3421049 0.10034159 -0.77894264 -0.693679 -0.23828365 0.0577367 0.3281477 -0.023690728 0.23938912 -0.033346824 0.3204448 0.03852685 0.42722228 -0.1849477 -0.027911909 -0.6123243 -0.3454934 0.4227599 0.26303977 0.13453922 -0.50050586 0.36484894 -0.100163005 -0.04234193 -0.52670926 0.3645339 -0.17901942 0.19372763 -0.124344915 0.4542966 -0.61290747 -0.019762395 0.19952966 0.25417414 -0.2469556 -0.30208406 0.023291368 -0.41652378 -0.3392592 0.65326464 -0.22938891 -0.42188403 0.36756423 -0.5645623 -0.28768435 -0.0280591 0.07211798 -0.42662477 -0.29218137 0.078660175 0.50620955 -0.27081257 -0.07617929
ham -0.07585764 0.02567263 -0.37208727 0.11170859 -0.16446573 -0.47672576 -0.6376159 0.27001902 -0.34999654 -0.38977006 -0.029455066 -0.09875361 -0.11912125 0.25665885 0.51977193 0.05006621 -0.2942943 -0.8949724 -0.01217732 0.78460366 -0.30810606 -0.13077098 0.78202677 0.19883318 0.5194536 0.12915409 -0.121294186 -0.20725508 -0.662185 0.07040463 -0.14309746 -0.10628456 -0.51574796 -0.11214695 0.060520295 -0.00036024887 0.47485957 -0.8802191 0.4535447 0.35504037 0.09750375 -0.2663155 0.43170092 -0.31074625 0.31152827 -0.8952764 -0.098065 0.9143092 0.61086625 0.17766704 0.006533948 -0.20730776 -0.8562596 0.42275113 0.65510994 -0.09599401 -0.3549842 0.79023683 0.039306022 1.0067067 -0.21039182 0.14810221 -0.27831018 0.16756856 0.16784953 -0.24842629 0.2327833 0.093990326 -0.102208525 0.22316942 -0.10339654 0.18127587 0.011204356 -0.7481141 0.36188906 -0.35335368 0.6596049 -1.3692858 -0.5609675 -0.42962074 0.3165694 0.41465566 0.10215758 -0.19401476 -0.27954155 0.40759882 0.2698777 0.081735045 0.41215926 -0.2588742 -0.247846 -0.09949119 0.23173869 -0.19311757 0.36608732 0.2201008 -0.70695704 0.7421633 0.18569905 -0.20078135
named -0.14003852 0.8064851 0.34465274 -0.09381078 -0.3741625 -0.17795491 0.26568085 0.5938543 -0.27730286 0.03325982 -0.532194 0.676476 -0.0766742 0.38265246 -0.331775 -0.22461478 -0.29257116 -0.72758895 0.159176 -0.10918835 -0.5922406 0.30956265 0.44051826 0.6878677 -0.030397844 0.14892098 -0.36608195 0.8012051 0.08436566 0.19501191 -0.33018702 0.39831161 -0.49900377 0.2824094 0.36618945 0.15206102 0.21884517 0.068240486 0.14743838 0.0717681 0.049673498 -0.23453374 0.57519126 -0.022442961 -0.122238025 -0.6265968 0.19109468 0.12365999 0.8627923 -0.3650558 -0.30262044 -0.7605408 -0.54185945 -0.31447244 1.4417572 -0.47475636 -0.8430138 0.17236413 0.79497015 0.46133053 0.57230496 -0.65631825 0.25931677 -0.10820058 -0.091541044 -0.1285579 -0.23630962 -0.59487003 -0.4532032 0.7229108 -0.031441968 -0.27833155 0.5526702 -1.0890037 -0.0050681625 -0.9264483 0.58708394 -0.7764223 -0.51785547 -0.025946314 -0.4281149 0.787113 -0.27385163 0.5133961 -0.8731632 0.58042705 -0.37628654 0.58027637 0.34204537 0.21757993 0.5553106 0.022919264 -0.2655186 -0.10324567 0.600322 0.35031405 0.051516216 -0.030688677 0.7737049 -0.49823183
cheesetopping 0.21657996 0.584877 -0.054445423 -0.1576557 0.2036058 0.10867661 -0.055391625 0.2178218 -0.40485305 -0.03917477 -0.19983459 0.5958922 0.013057823 0.10886487 0.30604815 0.20255953 -0.2957466 -0.5998292 0.28633314 0.084144756 0.4665507 -0.296546 0.06216438 0.16800328 0.2442376 0.38693386 0.47842354 -0.46281037 0.22649989 -0.07198556 0.757444 -0.08988538 0.0071911127 0.49106562 -0.66865885 -0.50684404 0.14672367 -0.60108495 0.1493003 0.23065144 0.3322103 -0.8036077 1.1301795 0.2049402 0.2023067 -0.05223411 0.5524393 0.15585843 -0.22127384 -0.4199686 -0.24790551 -0.87209153 0.101432234 -0.11235042 0.21064591 0.1623339 -0.78704876 0.3892425 -0.09995416 0.30360958 0.23043916 0.61674 -0.8305383 -0.3432493 -0.29846233 -0.033752132 0.06005436 -0.9823132 -0.3280008 0.3912152 -0.86575043 0.118464746 -0.09400103 -0.6299796 -0.05528751 -0.34136146 -0.040207993 -0.2561156 -0.053784914 -0.3279704 0.31328815 0.1396056 -0.18393749 -0.38264436 -0.13982981 0.676028 -0.85450727 -0.20203067 -0.7865691 0.4940073 -0.30808178 0.63321185 -0.6967524 0.34387833 0.2784679 -0.21897288 -0.1473996 0.45938236 -0.13839073 -0.53908056
garlic -0.16020976 0.29596034 -0.6834694 -0.52595633 -0.20574504 -0.15536183 -0.34977344 0.22924879 -1.079013 -0.37308043 -0.3843954 -0.24181387 0.18521987 0.71388847 0.35498932 -0.1793234 0.2590655 -1.0157461 -0.12298073 -0.22260548 -0.2055512 0.14982155 0.70933634 -0.19203939 0.5866963 -0.12063804 -0.6910692 -0.05876383 -0.48968783 -0.12277717 -0.900313 0.16344292 -0.7348905 -0.054859307 0.095927335 0.010341071 0.561948 -0.22144653 0.37139082 0.15845908 -0.25390556 -0.18587919 0.45924369 -0.86202157 -0.31674793 -0.36289993 0.28059542 0.4249088 0.4958951 0.07833049 -0.3297004 -0.85249776 -0.2880184 0.055398915 0.69863564 -0.16973236 0.17702149 0.3483671 0.41907337 0.46573427 0.17372848 -0.20702954 0.37889737 0.11265534 0.25512272 0.3975142 0.18168351 -0.22812451 -0.3387227 0.7313062 0.2736551 -0.3173074 0.5087542 -0.24205425 -0.16618219 -0.333046 -0.3529264 -0.27960628 0.116011016 4.718342e-06 0.45202997 -0.23005323 -0.7388965 0.02783928 -0.5775102 0.817553 0.15622506 0.32820803 0.46529934 0.17772639 -0.06967724 -0.041478693 0.4064104 -0.46736753 0.041816562 0.11931677 -0.0041279 0.037906777 0.45651427 -0.54069173
http://www.co-ode.org/ontologies/pizza/pizza.owl#VegetableTopping 0.14451085 -0.15914707 0.12195562 -0.09871442 0.49049854 -0.34789005 0.41684166 -0.10103028 -0.30216333 0.011134358 -0.8025083 -0.24382477 -0.20578869 0.24990897 0.45553482 -0.23772748 0.5555809 -0.5932532 -0.26785547 -0.22125192 0.12941982 -0.0041693235 0.38373002 0.51117545 0.6737487 0.526139 -0.074306525 -0.09836345 -0.84078705 -0.78138787 -0.46752176 -0.27792925 0.2288595 0.25046143 -0.35737285 0.25961712 -0.14934935 -1.3561598 0.13127477 0.0009577353 0.21147674 -0.49058977 0.4638993 -0.23674586 0.32192373 -0.30758548 0.07044104 0.4954769 0.38392168 -0.37757012 -0.36145052 -0.54867977 0.17056932 -0.31245637 0.6876595 0.2528908 -0.90610033 -0.030676063 0.7712012 0.3265567 -0.84556544 0.13941124 -0.494766 -0.33423078 0.4550078 -0.16374704 0.2523077 -0.32938015 -0.1717239 -0.4019089 -0.8556603 -0.5282468 -0.04091035 0.029543955 0.42672157 0.5330875 0.59401274 0.35593465 -0.6187402 -0.073931955 0.3416526 0.14627926 -0.42172238 0.24685723 -0.3836562 0.28375936 0.45882404 0.17383671 -0.22486095 0.35795492 -0.32708475 0.071894966 0.08147842 -0.99578035 0.70209175 -0.5376419 -0.034129832 0.13928303 -0.47026104 -0.26044542
rosa 0.052914776 0.5303076 -0.64537585 0.07906899 -0.37888193 0.38238803 0.26421165 0.43647096 -0.39947227 -0.24640305 -0.29148424 0.35769704 0.20503134 -0.09249781 0.19478503 0.18675992 0.3700136 -0.7277275 0.31580114 -0.46990445 0.4656109 0.496376 0.22177565 0.3154859 0.4510726 0.27405417 0.35284823 -0.31725743 -0.018131467 0.33071992 0.09372694 0.3601459 -0.6694627 -0.019993676 -0.444579 -0.5457476 0.34561133 -0.13518812 0.47964847 0.3617508 0.33762935 -0.73179626 0.7055394 0.045893498 -0.041292388 0.30090192 0.45238575 0.32537538 0.23073576 0.024264269 -0.31104556 -0.5624952 -0.047758654 0.46149397 0.37839192 -0.1489605 -0.14155115 0.4896779 0.19628222 0.38431415 0.08873866 0.19476204 -0.531975 -0.15813488 -0.15608612 -0.09529899 -0.0806882 -0.52171254 -0.3865988 0.1777564 -0.26315525 0.3562915 -0.30075774 -0.3591735 -0.26909584 -0.3326489 -0.53801054 -0.14175037 -0.37821308 -0.45103872 0.19322616 0.56862634 -0.32557538 0.101014026 0.11319847 0.9531263 -0.7164925 0.18515927 -0.40267906 0.45482436 -0.5967307 0.2992886 -0.32539934 0.44512874 0.4716501 0.22814232 0.10006635 0.52995443 0.31509575 -0.64127225
green 0.35219687 -0.14005588 0.2313043 0.01564974 -0.255474 -0.04373729 -0.20706871 0.536565 -0.30427963 -0.81536925 -0.11357329 0.315749 0.31882182 0.23408805 0.24536428 0.28225586 0.3452559 -0.88364404 -0.44229752 -0.22465694 -0.26856154 0.29702872 0.17611825 0.8629668 0.4963082 -0.2036213 -0.05968927 -0.4445809 -0.67278504 -0.42130232 -0.54128927 0.44687268 -0.22705613 -0.068682484 -0.33611667 -0.20984492 -0.16294718 -0.034450322 0.45459834 0.5002701 0.0364074 -0.5002762 0.111416854 0.36600074 0.12294618 -0.5082703 0.9127416 1.162315 0.39290452 0.19533479 -0.09642669 -0.6349213 -0.35840905 -0.091310926 1.1547823 -0.74433273 -0.070896626 0.68258 -0.08323342 0.22575255 0.30740473 -0.45928434 -0.4604802 0.57875854 -0.460267 -0.056055892 -0.27731413 -0.17221333 -0.5650852 0.84201413 0.44969025 0.3812383 -0.028645825 -0.3555506 -0.064066365 -0.95320976 -0.003652155 -0.60398144 -0.23300722 -0.30860314 -0.2527244 0.24714023 -0.71738434 0.12552153 -0.55871195 0.4170941 -0.569341 -0.12787639 -0.036560386 0.4920098 -0.56268257 0.37613133 0.4618387 0.101423375 0.56287265 0.119881175 0.032408863 0.2900374 -0.51666856 0.11937218
polloadastra -0.07308491 0.2111823 -0.6816839 -0.47071806 -0.17906895 0.3528894 -0.33484882 0.7838153 -0.44010213 -0.7650934 -0.575726 0.43060312 -0.27301195 0.4955099 0.31844005 0.5513544 0.14523886 -0.7828542 -0.31409156 -0.44029546 0.33378023 -0.0765655 0.47161794 -0.27955824 0.7216254 -0.17845272 -0.24842574 -0.86529136 -0.16338377 -0.45802578 -0.7659171 0.08296178 0.10345298 -0.3934501 -0.50509566 -0.6021763 0.3383869 -0.14652513 0.5787412 -0.0036564183 0.35042623 -0.10644681 0.30276048 -0.5835821 -0.18011574 -0.540114 0.49079418 0.39441484 0.2620251 -0.24901243 -0.29968616 -0.46677557 0.67154354 0.15652095 -0.12497053 -0.35633257 0.18275715 0.13352422 -0.16324161 -0.031755105 -0.56187016 -0.27776772 -0.25849342 0.112527706 0.13182887 0.24798986 0.20484081 -0.5104725 -0.15407623 0.25832203 -0.08695559 0.27946422 0.17092709 -0.15743938 -0.31062743 -0.45132428 -0.20328104 0.26634377 -0.05964069 -0.18265298 0.14085835 0.033943716 -0.3665867 0.062312584 -0.161437 0.38439915 -0.26241475 -0.042111024 -0.12637036 0.7981401 -0.8934448 -0.14169432 -0.04046447 -0.33835694 0.8050257 -0.031612974 -0.13601856 0.124282636 0.23375995 -0.823435
garlictopping -0.09507385 0.4697985 -0.640345 -0.44368494 -0.27288172 -0.23711966 -0.35008422 0.28801543 -0.92431325 -0.31554005 -0.35213277 -0.12270658 0.19567327 0.6366352 0.31553853 -0.15832043 0.3527663 -1.0814266 -0.053934757 -0.32087454 -0.39622957 0.08599332 0.7801554 -0.22787923 0.5598572 -0.12427263 -0.7288314 -0.092232816 -0.43784434 -0.12321259 -1.0042042 0.08107179 -0.64535636 0.015236154 0.020080054 -0.035648398 0.39138153 -0.3195083 0.20636728 0.4165604 0.053608023 -0.32523957 0.57349217 -0.82868135 -0.45216435 -0.5416007 0.35534975 0.6048379 0.5987607 -0.10148761 -0.15675162 -0.86974853 -0.52574337 0.07713269 0.6340031 -0.22773561 0.095874585 0.28553027 0.45887417 0.3299472 0.32727617 -0.032864798 0.3593803 0.06002757 0.4069806 0.37599048 0.06781176 -0.36784798 -0.31253314 0.7741274 0.21080971 -0.62282366 0.5470313 -0.059941046 -0.17943273 -0.49919888 -0.24015757 -0.36923796 -0.012178811 0.053683285 0.38851187 -0.17166847 -0.71380633 0.015124156 -0.6379453 0.75442535 -0.03576684 0.56035614 0.61255676 0.039681226 -0.035505794 -0.12316367 0.3463335 -0.33875665 0.119105116 0.22336593 0.2385549 -0.0005009449 0.4212332 -0.7368227
spice 0.10971187 0.60717887 -0.17234135 -0.6685566 0.30944335 0.277757 -0.34068865 0.48963687 -0.7813964 -0.23104906 -0.2853571 0.39063266 -0.30260152 1.1637763 -0.04068967 0.90218663 -0.04864292 -0.93452007 -0.24410181 -0.015410797 -0.3415189 -0.28397366 0.25389335 -0.17547292 0.45286375 0.18772246 -0.45972922 -0.31031045 -0.17887653 -0.53505194 -0.73855 0.14433995 -0.060123973 0.12805013 0.000412039 0.29436055 0.13664486 -0.47172746 0.51733726 0.06135417 0.19699171 -0.7287264 0.9787274 0.07778094 -0.08861633 -0.69431543 0.36961007 0.52229697 -0.3647914 -0.3173908 -0.42464167 -0.65114784 0.118072934 0.13580345 0.22014001 -0.14733292 -0.7639866 -0.4218952 -0.42687568 0.07489083 -0.084936105 -0.29015744 -0.2622087 0.022163158 -0.10966683 0.6211465 0.23971717 -0.90901065 -0.2938005 0.67055386 -0.65900123 -0.3970532 0.44835335 -0.2635169 -0.5278332 -0.12244569 -0.15087567 -0.1541415 -0.12970313 -0.10707908 0.40539885 -0.3543817 -0.210147 -0.55767745 -0.882353 0.72274244 -0.7719511 0.79987454 0.19335465 0.19972938 -0.23724052 0.5405253 -0.29057628 -0.6363009 0.5725088 -0.06671108 -0.022965524 0.006690595 0.365967 -0.9106971
fourseasons 0.22467324 0.1405868 0.0343168 -0.104334995 -0.105523475 0.3622372 -0.12922023 0.8848616 -0.29894236 -0.5195287 -0.15821089 0.6119691 -0.22764927 0.056161355 0.4929391 -0.32346183 0.2908352 -0.37762663 -0.03215597 0.28580946 0.46578506 0.17323832 0.2199171 0.2978487 0.5649565 0.48916107 0.12015844 -0.31559506 -0.19421859 -0.15804069 0.11274085 -0.47271493 -0.26642182 -0.03641863 -0.32017854 -1.0270634 0.30358353 -0.37406966 0.0625209 0.70043683 0.06359325 -0.4662617 0.5532323 -0.3925132 -0.052996174 -0.52554446 0.45246786 0.9666716 0.70256966 -0.66556615 -0.15196423 -0.63673985 -0.30444342 -0.46129456 0.4827329 -0.28474078 -0.02078953 0.5244108 0.13392706 0.49523205 -0.03292504 0.7462725 0.14316571 0.33949882 -0.0375284 -0.26161537 0.17342488 -0.82444435 0.35352734 0.106159575 -0.2081029 0.12433186 -0.07911767 -0.8722969 -0.14772715 -0.48878115 0.2247151 0.45344242 -0.16073972 -0.3183789 -0.12424107 0.07877975 -0.011872025 -0.4353495 0.07014916 0.26485735 -0.08062927 -0.6269146 -0.1872232 0.011166241 -0.51707363 -0.01946368 -0.060956705 -0.0031649077 0.31971002 -0.036625564 -0.3437864 0.82548827 0.21956742 -0.7382835
hamtopping -0.0082377205 0.24296542 -0.31949198 0.12378029 -0.22761063 -0.43157193 -0.50828105 0.34761533 -0.29861233 -0.33244684 0.022655321 0.10324147 -0.047894385 0.23896997 0.3996776 0.08683185 -0.16821502 -0.9907725 0.062040944 0.54325515 -0.53127706 -0.21646549 0.84587073 0.25365782 0.43095574 0.14304328 -0.25173643 -0.1548805 -0.5762272 0.07233872 -0.27793568 -0.20574078 -0.4517367 -0.10309844 0.104629144 0.021080248 0.29533276 -0.84596777 0.18590839 0.5318022 0.37004545 -0.43864074 0.46534193 -0.35920298 0.2205163 -0.9395391 -0.036794055 1.0872558 0.7720524 -0.04812968 0.2465952 -0.22352506 -1.0511608 0.33678797 0.7080985 -0.19058748 -0.31553558 0.73815894 0.12821265 0.7631451 0.016803801 0.2507991 -0.27623004 0.19990017 0.22773065 -0.23758805 0.10398391 0.0034592904 -0.11256672 0.2496758 -0.07855279 -0.1150524 0.09558349 -0.626218 0.43673107 -0.58854944 0.72793263 -1.356995 -0.5831991 -0.2333869 0.19032428 0.44536594 0.052126557 -0.12338137 -0.3771871 0.31999683 0.037847005 0.2927263 0.6136949 -0.34845304 -0.1809154 -0.09718612 0.2633806 -0.053625867 0.3640125 0.36267295 -0.44228488 0.70563656 0.14126205 -0.3784381
oniontopping -0.53881603 0.7337936 0.0059896335 -0.39330745 -0.06839175 0.1615563 -0.06529116 0.3866074 -0.49950212 -1.1138434 -0.2505996 0.44930518 -0.31958926 0.2865184 0.63094604 0.5951348 0.4719062 -0.68381 -0.3220497 -0.38953495 -0.5451148 -0.23093027 0.42452243 0.26818645 0.60552627 -0.1472637 -0.47178409 0.02523639 -0.6256181 -0.5134722 -1.0929694 0.35029644 -0.59302485 -0.10344797 0.089845136 0.18236272 0.36593214 0.26551375 0.5868123 -0.005914109 0.016188584 -0.17584261 0.5820854 -0.14558627 -0.10630398 -0.50369865 0.58992755 0.6388717 0.07064084 0.51694554 -0.49638337 -0.4824782 -0.33072248 -0.30120766 0.47460264 -0.1492496 -0.5184386 0.07268518 0.122910604 0.0006835378 0.010494362 -0.123155594 -0.3031273 0.49840915 0.055199284 -0.09033148 -0.12490515 -0.121002875 0.093535416 0.095435105 0.019116651 0.050722547 -0.14200051 -0.4491038 -0.27028218 -0.24691701 -0.476495 -0.6604971 -0.10832612 -0.40515977 0.24908689 0.5479335 -0.3081254 0.027745144 -0.2109695 0.88032824 -0.12784196 0.580612 -0.06651412 0.15806797 -0.648432 0.37158743 0.1495848 0.06335213 0.84610105 -0.14919162 -0.19761164 0.24691404 -0.05291061 -0.08651734
parmezantopping 0.40354896 0.039191484 -0.6048609 -0.1971643 -0.12115666 -0.068336576 -0.48238033 -0.13253875 -0.69461346 0.26532456 -0.32766622 0.23699677 0.44278568 0.82422674 0.27723446 0.14970581 0.08765018 -0.86576545 -0.04726371 0.40068096 0.063561276 0.10325898 0.635991 0.01646236 0.5509641 -0.12229926 0.07589773 -0.21623193 -0.6819347 0.086409405 0.029088475 0.08840796 -0.9481488 0.12984505 -0.03080192 0.23274703 0.052764997 -0.7893646 0.116021186 0.63919985 0.017079668 -0.7167294 0.7659054 -0.22529161 0.09470381 0.00836694 0.31934243 0.2580497 -0.057282344 0.19860683 -0.20337978 -0.652401 -0.5015212 0.30267516 0.5800555 -0.3486095 -0.56298727 0.46450236 0.587534 0.94084823 0.330031 -0.0435358 -0.011386455 -0.077088855 -0.5161319 0.0151925525 -0.38068527 -0.56212217 -0.3690637 -0.07334837 -0.20226958 -0.10861397 0.08870882 -0.328566 -0.2654441 -0.06058527 0.038580574 -0.38168693 -0.657066 -0.11211022 0.7539319 0.06175491 -0.35640717 -0.2108238 -0.2558213 0.82664365 -0.46379116 0.5347311 0.35479558 0.12330052 -0.026945904 0.26307812 -0.00037872337 -0.2958611 0.3942087 0.18608071 -0.40238306 0.19017343 0.47818756 -0.3221908
di 0.32379273 -0.05400412 -0.6029744 0.08444805 -0.45651796 -0.045181952 -0.120774284 0.46793488 -0.5684311 -0.2281425 -0.81709445 -0.23040213 0.007027346 0.5978395 0.07703257 -0.5215835 0.5730799 -0.99486536 -0.15230073 -0.6244277 0.3136648 0.4838448 0.71891266 -0.19175142 0.40361688 0.10167926 -0.28688192 -0.62045705 -0.42957896 0.06665435 -0.9286874 -0.5373415 -0.39583933 -0.5348765 0.16611694 -0.8027331 -0.056021232 -0.27191266 0.3394605 0.547023 0.72139937 0.056048423 0.3866575 -0.44972005 -0.5236537 -0.19681706 0.5369184 0.5804483 0.7533323 -0.5450461 -0.5114224 -0.96322936 -0.22813204 0.15742329 0.93055147 0.2997816 0.3814375 0.54292214 0.40469873 1.0478672 0.02965134 0.14672273 0.23522758 -0.3447691 0.6193699 0.39029613 0.090061486 -0.92091703 -0.22760399 0.90876406 0.59498674 0.004587846 0.12686631 -0.6889575 0.411412 -1.2116034 -0.4525451 -0.19732286 0.2844137 -0.4330538 -0.41531745 -0.16501288 -0.5365272 -0.07393442 -0.062624075 0.8660777 -0.3419956 0.38918686 0.37420192 0.48354805 -0.19078238 0.112373665 0.46325383 -0.2860237 0.12155781 0.3926296 0.4039963 -0.12466536 0.5208514 -0.859937
mare 0.10052106 0.024007823 -1.1164387 0.23194772 -0.09352478 -0.37525746 -0.38858575 0.7818777 -1.3336971 -0.012379526 -0.28495154 0.15996478 -0.17748694 0.40107113 0.5135571 -0.695239 0.7043664 -1.1250751 0.3452433 -0.81275505 0.39856744 0.618765 0.8021966 0.12821208 0.29888883 -0.041180152 -0.8575824 -0.70759654 -0.3722235 0.014076102 -1.0017785 -0.5580974 -0.7289292 -0.30972114 -0.22630927 -0.93265444 0.053929772 0.075227834 0.14414757 0.6274657 0.45718274 -0.39197916 0.70421606 -0.8903568 -0.256011 -0.3506361 0.54321945 0.46824983 0.8048193 -0.7083497 -0.4274954 -0.8836558 -0.038569298 0.3197918 1.1389867 -0.30296177 0.42821595 0.5952371 0.25319648 0.5761428 0.40395343 0.35617125 0.43042332 -0.6225054 0.21533255 0.3474037 0.17391576 -0.47653168 -0.3224145 0.79649574 0.34074712 -0.32749245 0.16752316 -0.53991115 0.25553477 -0.7224046 -0.4503227 -0.07722614 0.31193435 -0.2878247 -0.28419662 0.38398752 -0.15940128 0.08736317 -0.85449773 0.6167187 -0.19650507 0.17489697 0.27748182 0.65118283 -0.6062 -0.110878855 -0.13471192 0.18842302 0.045857597 -0.06631145 0.5541034 0.10632668 0.57239157 -0.2672902
frutti -0.12647407 0.1585233 -0.7990078 -0.28844666 -0.43868864 -0.09587651 -0.120718434 0.6481464 -1.0815431 -0.10190585 -0.3797957 -0.21555813 0.29924592 0.15548573 0.5153633 -0.33738896 0.50117123 -0.71604645 0.22682427 -0.54731315 0.2837053 0.8288248 0.8885621 0.33982414 0.44376352 -0.34112754 -0.30650386 -0.30045584 -0.03654718 0.06696225 -0.480165 -0.23463489 -0.6935416 -0.2859445 -0.09352495 -0.36765155 0.07363947 0.0027314243 -0.17055061 0.6721399 0.41976708 0.1405943 0.6232081 -0.56786823 -0.60130554 -0.31016573 0.8047586 0.9639708 0.30536437 -0.75341624 -0.14248107 -0.98388577 -0.075664446 0.058858983 0.93504363 -0.018934874 0.29262424 0.28754628 0.45610282 0.7853761 0.4226677 -0.47985584 0.3677635 -0.24227308 0.00040840317 0.33094677 0.42201385 -0.9088557 -0.33577755 0.7300432 0.30137965 -0.36638528 0.31252488 -0.19289556 0.40321073 -1.0491111 -0.1465876 0.4498124 0.20783773 -0.2043116 -0.28169012 -0.16421665 -0.47393048 -0.28386152 -0.55488765 0.40012538 0.0056660627 0.27614817 0.09059359 0.82927036 -0.56447583 0.12694147 -0.16458489 0.1881129 0.13410777 0.19419855 0.5156702 0.24056377 0.23073827 -0.6204333
caper -0.2503178 0.8212507 -0.033912666 -0.5151267 -0.17613657 0.3832042 -0.038692012 0.36100855 -0.47716662 -0.69622946 -0.080270484 0.3820267 0.044244654 -0.013619264 0.8942564 -0.01615336 0.29348487 -0.583254 -0.35736173 0.40432084 -0.053053096 -0.27167624 0.44862318 0.05147409 0.36732143 0.40881875 -0.3240236 0.30820054 -0.29857206 -0.26795697 -0.38341266 0.31567526 -0.6297281 0.08813452 0.116912514 0.0038845763 0.722543 -0.360208 0.29420608 0.23364237 -0.114735335 -0.7842403 0.87009984 -0.31900933 -0.13581972 -0.15349975 0.46380478 0.58848274 0.4539771 0.0029053136 -0.11406526 -0.876247 -0.9884644 -0.52729064 0.5243166 -0.17548403 -0.2862126 0.5459427 0.27093738 0.6836313 -0.010672011 0.30023932 -0.09755403 0.46484753 0.0734892 -0.3634837 0.14984363 -0.48630235 0.25603694 0.26192412 -0.22302239 -0.1525539 -0.007165781 -0.6195257 -0.5274964 -0.20099954 -0.21265055 -0.50552803 -0.013516848 -0.37016657 0.31933257 -0.007939019 -0.47665164 -0.10394716 0.034199893 0.7745502 0.13509561 -0.46730602 -0.079698674 -0.30654114 0.02474326 0.37524706 0.21188216 -0.0108857695 0.3449817 -0.26813954 -0.45442075 0.78017074 0.1859398 -0.32693738
